{"learner":{"attributes":{"scikit_learn":"{\"_estimator_type\": \"classifier\"}"},"feature_names":["portfolio_return_1d","portfolio_return_5d","rolling_volatility_5d","rolling_volatility_20d","rolling_volatility_60d","rolling_mean_return_5d","rolling_mean_return_20d","rolling_max_drawdown_20d","rolling_max_drawdown_60d","downside_volatility_20d","skewness_20d","kurtosis_20d","correlation_mean_20d","correlation_max_20d"],"feature_types":["float","float","float","float","float","float","float","float","float","float","float","float","float","float"],"gradient_booster":{"model":{"cats":{"enc":[],"feature_segments":[],"sorted_idx":[]},"gbtree_model_param":{"num_parallel_tree":"1","num_trees":"300"},"iteration_indptr":[0,1,2,3,4,5,6,7,8,9,10,11,12,13,14,15,16,17,18,19,20,21,22,23,24,25,26,27,28,29,30,31,32,33,34,35,36,37,38,39,40,41,42,43,44,45,46,47,48,49,50,51,52,53,54,55,56,57,58,59,60,61,62,63,64,65,66,67,68,69,70,71,72,73,74,75,76,77,78,79,80,81,82,83,84,85,86,87,88,89,90,91,92,93,94,95,96,97,98,99,100,101,102,103,104,105,106,107,108,109,110,111,112,113,114,115,116,117,118,119,120,121,122,123,124,125,126,127,128,129,130,131,132,133,134,135,136,137,138,139,140,141,142,143,144,145,146,147,148,149,150,151,152,153,154,155,156,157,158,159,160,161,162,163,164,165,166,167,168,169,170,171,172,173,174,175,176,177,178,179,180,181,182,183,184,185,186,187,188,189,190,191,192,193,194,195,196,197,198,199,200,201,202,203,204,205,206,207,208,209,210,211,212,213,214,215,216,217,218,219,220,221,222,223,224,225,226,227,228,229,230,231,232,233,234,235,236,237,238,239,240,241,242,243,244,245,246,247,248,249,250,251,252,253,254,255,256,257,258,259,260,261,262,263,264,265,266,267,268,269,270,271,272,273,274,275,276,277,278,279,280,281,282,283,284,285,286,287,288,289,290,291,292,293,294,295,296,297,298,299,300],"tree_info":[0,0,0,0,0,0,0,0,0,0,0,0,0,0,0,0,0,0,0,0,0,0,0,0,0,0,0,0,0,0,0,0,0,0,0,0,0,0,0,0,0,0,0,0,0,0,0,0,0,0,0,0,0,0,0,0,0,0,0,0,0,0,0,0,0,0,0,0,0,0,0,0,0,0,0,0,0,0,0,0,0,0,0,0,0,0,0,0,0,0,0,0,0,0,0,0,0,0,0,0,0,0,0,0,0,0,0,0,0,0,0,0,0,0,0,0,0,0,0,0,0,0,0,0,0,0,0,0,0,0,0,0,0,0,0,0,0,0,0,0,0,0,0,0,0,0,0,0,0,0,0,0,0,0,0,0,0,0,0,0,0,0,0,0,0,0,0,0,0,0,0,0,0,0,0,0,0,0,0,0,0,0,0,0,0,0,0,0,0,0,0,0,0,0,0,0,0,0,0,0,0,0,0,0,0,0,0,0,0,0,0,0,0,0,0,0,0,0,0,0,0,0,0,0,0,0,0,0,0,0,0,0,0,0,0,0,0,0,0,0,0,0,0,0,0,0,0,0,0,0,0,0,0,0,0,0,0,0,0,0,0,0,0,0,0,0,0,0,0,0,0,0,0,0,0,0,0,0,0,0,0,0,0,0,0,0,0,0,0,0,0,0,0,0,0,0,0,0,0,0],"trees":[{"base_weights":[5.3691603E-3,-1.4018412E-1,5.068164E-1,-3.662553E-1,1.097682E-1,-9.194745E-1,6.4945024E-1,-3.1579954E-3,-2.1507952E-2,6.343461E-4,1.8029679E-2,-3.478286E-2,2.8469209E-2,2.6591564E-2,4.688915E-3],"categories":[],"categories_nodes":[],"categories_segments":[],"categories_sizes":[],"default_left":[0,0,0,0,0,0,0,0,0,0,0,0,0,0,0],"id":0,"left_children":[1,3,5,7,9,11,13,-1,-1,-1,-1,-1,-1,-1,-1],"loss_changes":[8.5759955E2,5.146725E2,5.3894946E2,4.375321E2,1.8832089E2,1.10313385E2,2.8064313E2,0E0,0E0,0E0,0E0,0E0,0E0,0E0,0E0],"parents":[2147483647,0,0,1,1,2,2,3,3,4,4,5,5,6,6],"right_children":[2,4,6,8,10,12,14,-1,-1,-1,-1,-1,-1,-1,-1],"split_conditions":[1.6348595E-2,-7.64043E-2,-2.626603E-1,5.306282E-4,1.2266943E-2,2.1533463E-2,6.5136276E-2,-3.1579954E-3,-2.1507952E-2,6.343461E-4,1.8029679E-2,-3.478286E-2,2.8469209E-2,2.6591564E-2,4.688915E-3],"split_indices":[2,8,8,6,2,5,10,0,0,0,0,0,0,0,0],"split_type":[0,0,0,0,0,0,0,0,0,0,0,0,0,0,0],"sum_hessian":[1.1746038E4,9.104693E3,2.6413455E3,4.7802397E3,4.3244536E3,2.3913928E2,2.402206E3,2.7420706E3,2.0381691E3,3.665272E3,6.591815E2,2.1259576E2,2.6543528E1,1.621542E3,7.8066406E2],"tree_param":{"num_deleted":"0","num_feature":"14","num_nodes":"15","size_leaf_vector":"1"}},{"base_weights":[-1.51838595E-2,-1.5871058E-1,4.2313638E-1,-3.9889708E-1,9.45605E-2,-9.6987015E-1,5.6014633E-1,-6.336409E-3,-2.3553189E-2,8.22336E-3,-3.8093915E-3,-2.5582623E-3,-4.3899845E-2,2.3545582E-2,2.9478967E-3],"categories":[],"categories_nodes":[],"categories_segments":[],"categories_sizes":[],"default_left":[0,0,0,0,0,0,0,0,0,0,0,0,0,0,0],"id":1,"left_children":[1,3,5,7,9,11,13,-1,-1,-1,-1,-1,-1,-1,-1],"loss_changes":[7.37162E2,5.3704297E2,5.527455E2,3.280923E2,1.7103873E2,1.1305377E2,2.731078E2,0E0,0E0,0E0,0E0,0E0,0E0,0E0,0E0],"parents":[2147483647,0,0,1,1,2,2,3,3,4,4,5,5,6,6],"right_children":[2,4,6,8,10,12,14,-1,-1,-1,-1,-1,-1,-1,-1],"split_conditions":[1.5586364E-2,-7.64043E-2,-2.626603E-1,1.2676439E-3,4.173552E-3,-4.2939717E-3,7.584566E-2,-6.336409E-3,-2.3553189E-2,8.22336E-3,-3.8093915E-3,-2.5582623E-3,-4.3899845E-2,2.3545582E-2,2.9478967E-3],"split_indices":[2,8,8,6,1,6,10,0,0,0,0,0,0,0,0],"split_type":[0,0,0,0,0,0,0,0,0,0,0,0,0,0,0],"sum_hessian":[1.1713464E4,8.825015E3,2.88845E3,4.5289194E3,4.2960947E3,2.5756622E2,2.6308838E3,3.0498828E3,1.4790366E3,2.3726558E3,1.923439E3,9.307017E1,1.6449606E2,1.7689095E3,8.6197424E2],"tree_param":{"num_deleted":"0","num_feature":"14","num_nodes":"15","size_leaf_vector":"1"}},{"base_weights":[-1.2042911E-2,-1.4273736E-1,4.4288808E-1,-3.2796156E-2,-4.576114E-1,6.376313E-1,-1.5121105E-1,4.942759E-3,-9.266568E-3,-1.5540358E-2,3.106558E-2,2.7314968E-2,2.576014E-4,-1.1679847E-2,4.250519E-2],"categories":[],"categories_nodes":[],"categories_segments":[],"categories_sizes":[],"default_left":[0,0,0,0,0,0,0,0,0,0,0,0,0,0,0],"id":2,"left_children":[1,3,5,7,9,11,13,-1,-1,-1,-1,-1,-1,-1,-1],"loss_changes":[6.9381E2,3.1377087E2,3.0149234E2,3.6668298E2,2.1262973E2,3.367008E2,2.4175595E2,0E0,0E0,0E0,0E0,0E0,0E0,0E0,0E0],"parents":[2147483647,0,0,1,1,2,2,3,3,4,4,5,5,6,6],"right_children":[2,4,6,8,10,12,14,-1,-1,-1,-1,-1,-1,-1,-1],"split_conditions":[1.6348595E-2,2.945451E-3,2.3191597E-1,3.269225E-2,7.244789E-3,1.8832508E-2,2.1533463E-2,4.942759E-3,-9.266568E-3,-1.5540358E-2,3.106558E-2,2.7314968E-2,2.576014E-4,-1.1679847E-2,4.250519E-2],"split_indices":[2,5,10,10,6,4,5,0,0,0,0,0,0,0,0],"split_type":[0,0,0,0,0,0,0,0,0,0,0,0,0,0,0],"sum_hessian":[1.1664987E4,9.0627705E3,2.6022173E3,6.7189834E3,2.3437869E3,1.959692E3,6.4252527E2,3.916997E3,2.8019866E3,2.253917E3,8.98699E1,1.3661758E3,5.9351624E2,5.591228E2,8.3402466E1],"tree_param":{"num_deleted":"0","num_feature":"14","num_nodes":"15","size_leaf_vector":"1"}},{"base_weights":[-1.2698333E-2,-1.7033106E-1,4.410909E-1,-3.7867814E-1,7.7498384E-2,-7.882359E-1,5.6031215E-1,-5.5238726E-3,-2.228995E-2,-1.1752649E-4,1.7653413E-2,-1.0565889E-2,-5.6202985E-2,2.2719093E-2,5.456431E-3],"categories":[],"categories_nodes":[],"categories_segments":[],"categories_sizes":[],"default_left":[0,0,0,0,0,0,0,0,0,0,0,0,0,0,0],"id":3,"left_children":[1,3,5,7,9,11,13,-1,-1,-1,-1,-1,-1,-1,-1],"loss_changes":[8.3326184E2,4.464632E2,4.4104224E2,3.3265564E2,1.6433278E2,1.2470845E2,2.0390204E2,0E0,0E0,0E0,0E0,0E0,0E0,0E0,0E0],"parents":[2147483647,0,0,1,1,2,2,3,3,4,4,5,5,6,6],"right_children":[2,4,6,8,10,12,14,-1,-1,-1,-1,-1,-1,-1,-1],"split_conditions":[1.5460404E-2,-7.37852E-2,-2.626603E-1,1.1053148E-3,1.2266943E-2,3.0401922E-3,6.5136276E-2,-5.5238726E-3,-2.228995E-2,-1.1752649E-4,1.7653413E-2,-1.0565889E-2,-5.6202985E-2,2.2719093E-2,5.456431E-3],"split_indices":[2,8,8,6,2,6,10,0,0,0,0,0,0,0,0],"split_type":[0,0,0,0,0,0,0,0,0,0,0,0,0,0,0],"sum_hessian":[1.1644692E4,8.643463E3,3.0012295E3,4.695206E3,3.9482563E3,2.6433783E2,2.7368916E3,3.0627117E3,1.6324945E3,3.407311E3,5.4094543E2,1.9045914E2,7.38787E1,1.7986228E3,9.3826886E2],"tree_param":{"num_deleted":"0","num_feature":"14","num_nodes":"15","size_leaf_vector":"1"}},{"base_weights":[-1.6796062E-2,2.0441231E-1,-2.5025085E-1,4.4448063E-1,-1.3125885E-1,-2.9859862E-1,1.0284234E0,-1.1623772E-3,1.738839E-2,-1.2712565E-2,5.610247E-3,-2.4635247E-3,-1.5536543E-2,-2.7242195E-4,3.8645715E-2],"categories":[],"categories_nodes":[],"categories_segments":[],"categories_sizes":[],"default_left":[0,0,0,0,0,0,0,0,0,0,0,0,0,0,0],"id":4,"left_children":[1,3,5,7,9,11,13,-1,-1,-1,-1,-1,-1,-1,-1],"loss_changes":[6.0229694E2,4.8270215E2,3.5140598E2,2.2806891E2,2.3275888E2,2.5954163E2,5.586136E1,0E0,0E0,0E0,0E0,0E0,0E0,0E0,0E0],"parents":[2147483647,0,0,1,1,2,2,3,3,4,4,5,5,6,6],"right_children":[2,4,6,8,10,12,14,-1,-1,-1,-1,-1,-1,-1,-1],"split_conditions":[1.1439467E-3,-3.5103127E-2,7.775315E-3,3.754594E-1,-8.597034E-2,1.1053148E-3,-1.5468611E-1,-1.1623772E-3,1.738839E-2,-1.2712565E-2,5.610247E-3,-2.4635247E-3,-1.5536543E-2,-2.7242195E-4,3.8645715E-2],"split_indices":[1,10,6,12,8,6,8,0,0,0,0,0,0,0,0],"split_type":[0,0,0,0,0,0,0,0,0,0,0,0,0,0,0],"sum_hessian":[1.1658912E4,5.9866006E3,5.672311E3,3.4899668E3,2.496634E3,5.4671274E3,2.0518384E2,7.6298785E2,2.7269788E3,1.3006499E3,1.1959843E3,2.7525432E3,2.7145842E3,4.1472736E1,1.637111E2],"tree_param":{"num_deleted":"0","num_feature":"14","num_nodes":"15","size_leaf_vector":"1"}},{"base_weights":[-9.328877E-3,2.0796601E-1,-2.8372085E-1,3.6796603E-2,6.336804E-1,-7.455021E-1,-1.762416E-1,6.4376937E-3,-7.6547097E-3,-2.2282643E-2,2.1926278E-2,-2.5162134E-2,5.3837385E-2,-8.518379E-3,1.8362662E-2],"categories":[],"categories_nodes":[],"categories_segments":[],"categories_sizes":[],"default_left":[0,0,0,0,0,0,0,0,0,0,0,0,0,0,0],"id":5,"left_children":[1,3,5,7,9,11,13,-1,-1,-1,-1,-1,-1,-1,-1],"loss_changes":[6.9968463E2,4.77166E2,2.5713272E2,2.4267128E2,2.5231927E2,2.3475452E2,3.5776608E2,0E0,0E0,0E0,0E0,0E0,0E0,0E0,0E0],"parents":[2147483647,0,0,1,1,2,2,3,3,4,4,5,5,6,6],"right_children":[2,4,6,8,10,12,14,-1,-1,-1,-1,-1,-1,-1,-1],"split_conditions":[3.2483677E-3,1.5460404E-2,-1.5606709E-1,1.0737399E-2,-2.626603E-1,6.905526E0,1.7384643E-2,6.4376937E-3,-7.6547097E-3,-2.2282643E-2,2.1926278E-2,-2.5162134E-2,5.3837385E-2,-8.518379E-3,1.8362662E-2],"split_indices":[1,2,8,4,8,11,2,0,0,0,0,0,0,0,0],"split_type":[0,0,0,0,0,0,0,0,0,0,0,0,0,0,0],"sum_hessian":[1.1730976E4,6.5468867E3,5.1840884E3,4.6709746E3,1.8759125E3,9.765404E2,4.207548E3,2.9033994E3,1.767575E3,1.2285253E2,1.7530599E3,9.43257E2,3.3283413E1,3.7029219E3,5.0462607E2],"tree_param":{"num_deleted":"0","num_feature":"14","num_nodes":"15","size_leaf_vector":"1"}},{"base_weights":[4.6867398E-3,-1.8496366E-1,2.9908857E-1,-2.610636E-1,6.803291E-1,-9.0147156E-1,3.8534838E-1,-8.618174E-3,2.2174219E-2,3.1759728E-2,-1.2948066E-2,-1.0149379E-2,-5.1694825E-2,1.810268E-2,2.7369037E-3],"categories":[],"categories_nodes":[],"categories_segments":[],"categories_sizes":[],"default_left":[0,0,0,0,0,0,0,0,0,0,0,0,0,0,0],"id":6,"left_children":[1,3,5,7,9,11,13,-1,-1,-1,-1,-1,-1,-1,-1],"loss_changes":[6.531907E2,4.6889157E2,4.7537207E2,1.7190768E2,2.4311438E2,1.4129019E2,2.7426276E2,0E0,0E0,0E0,0E0,0E0,0E0,0E0,0E0],"parents":[2147483647,0,0,1,1,2,2,3,3,4,4,5,5,6,6],"right_children":[2,4,6,8,10,12,14,-1,-1,-1,-1,-1,-1,-1,-1],"split_conditions":[1.2266943E-2,-3.130829E-2,-2.626603E-1,1.3935891E0,1.2205736E-3,-1.4312227E-1,-3.5103127E-2,-8.618174E-3,2.2174219E-2,3.1759728E-2,-1.2948066E-2,-1.0149379E-2,-5.1694825E-2,1.810268E-2,2.7369037E-3],"split_indices":[2,8,8,10,6,7,10,0,0,0,0,0,0,0,0],"split_type":[0,0,0,0,0,0,0,0,0,0,0,0,0,0,0],"sum_hessian":[1.16949375E4,7.1133438E3,4.5815938E3,6.5396016E3,5.737421E2,3.0585242E2,4.2757417E3,6.374006E3,1.6559586E2,4.2815915E2,1.45583E2,1.8315053E2,1.22701904E2,2.4540674E3,1.8216742E3],"tree_param":{"num_deleted":"0","num_feature":"14","num_nodes":"15","size_leaf_vector":"1"}},{"base_weights":[3.1059554E-3,-1.162367E-1,4.1415402E-1,-3.1032854E-1,1.2065188E-1,-7.7232015E-1,5.3749484E-1,-2.9783156E-3,-1.7243348E-2,1.8658374E-4,1.3938051E-2,-1.1983789E-2,-5.27771E-2,2.2748392E-2,7.299982E-3],"categories":[],"categories_nodes":[],"categories_segments":[],"categories_sizes":[],"default_left":[0,0,0,0,0,0,0,0,0,0,0,0,0,0,0],"id":7,"left_children":[1,3,5,7,9,11,13,-1,-1,-1,-1,-1,-1,-1,-1],"loss_changes":[5.7531177E2,4.1796768E2,3.8700073E2,2.787419E2,1.6115533E2,9.033687E1,1.5495288E2,0E0,0E0,0E0,0E0,0E0,0E0,0E0,0E0],"parents":[2147483647,0,0,1,1,2,2,3,3,4,4,5,5,6,6],"right_children":[2,4,6,8,10,12,14,-1,-1,-1,-1,-1,-1,-1,-1],"split_conditions":[1.6348595E-2,-7.37852E-2,-2.626603E-1,4.6111358E-4,6.5667834E-3,3.0401922E-3,-4.2987247E-3,-2.9783156E-3,-1.7243348E-2,1.8658374E-4,1.3938051E-2,-1.1983789E-2,-5.27771E-2,2.2748392E-2,7.299982E-3],"split_indices":[2,8,8,6,9,6,1,0,0,0,0,0,0,0,0],"split_type":[0,0,0,0,0,0,0,0,0,0,0,0,0,0,0],"sum_hessian":[1.1723793E4,9.086946E3,2.6368467E3,4.9943037E3,4.0926433E3,2.4731187E2,2.389535E3,2.7791096E3,2.215194E3,3.0724668E3,1.0201764E3,1.8153632E2,6.577554E1,1.3632126E3,1.0263221E3],"tree_param":{"num_deleted":"0","num_feature":"14","num_nodes":"15","size_leaf_vector":"1"}},{"base_weights":[-1.7261074E-3,-1.9783653E-1,2.9606172E-1,2.8211528E-1,-2.899032E-1,5.1446915E-1,-1.0009365E-1,-1.5691966E-2,1.357602E-2,-9.474944E-3,2.5793508E-2,2.072858E-2,-4.8096445E-3,-5.666841E-3,4.166403E-2],"categories":[],"categories_nodes":[],"categories_segments":[],"categories_sizes":[],"default_left":[0,0,0,0,0,0,0,0,0,0,0,0,0,0,0],"id":8,"left_children":[1,3,5,7,9,11,13,-1,-1,-1,-1,-1,-1,-1,-1],"loss_changes":[6.8454114E2,3.1245547E2,4.0280927E2,1.5669841E2,1.7733978E2,3.5755634E2,2.1944098E2,0E0,0E0,0E0,0E0,0E0,0E0,0E0,0E0],"parents":[2147483647,0,0,1,1,2,2,3,3,4,4,5,5,6,6],"right_children":[2,4,6,8,10,12,14,-1,-1,-1,-1,-1,-1,-1,-1],"split_conditions":[1.2266943E-2,6.5843426E-3,6.5136276E-2,2.5432622E-3,1.5097898E0,1.8632118E-2,1.0766731E-1,-1.5691966E-2,1.357602E-2,-9.474944E-3,2.5793508E-2,2.072858E-2,-4.8096445E-3,-5.666841E-3,4.166403E-2],"split_indices":[2,4,10,9,10,4,1,0,0,0,0,0,0,0,0],"split_type":[0,0,0,0,0,0,0,0,0,0,0,0,0,0,0],"sum_hessian":[1.1717729E4,7.065417E3,4.652312E3,1.1365178E3,5.928899E3,2.9985576E3,1.6537545E3,1.9780513E2,9.3871265E2,5.799555E3,1.2934381E2,2.3768677E3,6.216898E2,1.5623204E3,9.143407E1],"tree_param":{"num_deleted":"0","num_feature":"14","num_nodes":"15","size_leaf_vector":"1"}},{"base_weights":[-4.56914E-3,1.8043555E-1,-2.282907E-1,3.3181283E-1,-2.5953197E-1,-2.7595598E-1,8.137688E-1,2.4499719E-3,1.5941937E-2,-1.717048E-2,2.5318833E-3,-2.007232E-2,-5.561375E-3,6.602177E-3,3.4950566E-2],"categories":[],"categories_nodes":[],"categories_segments":[],"categories_sizes":[],"default_left":[0,0,0,0,0,0,0,0,0,0,0,0,0,0,0],"id":9,"left_children":[1,3,5,7,9,11,13,-1,-1,-1,-1,-1,-1,-1,-1],"loss_changes":[4.8297318E2,4.2556567E2,2.6279584E2,2.372107E2,1.7612625E2,1.7965094E2,4.777066E1,0E0,0E0,0E0,0E0,0E0,0E0,0E0,0E0],"parents":[2147483647,0,0,1,1,2,2,3,3,4,4,5,5,6,6],"right_children":[2,4,6,8,10,12,14,-1,-1,-1,-1,-1,-1,-1,-1],"split_conditions":[3.038853E-3,2.261612E-1,7.244789E-3,1.0675854E-2,-8.597034E-2,-1.5606709E-1,4.6517563E-1,2.4499719E-3,1.5941937E-2,-1.717048E-2,2.5318833E-3,-2.007232E-2,-5.561375E-3,6.602177E-3,3.4950566E-2],"split_indices":[1,10,6,3,8,8,10,0,0,0,0,0,0,0,0],"split_type":[0,0,0,0,0,0,0,0,0,0,0,0,0,0,0],"sum_hessian":[1.1664975E4,6.3851855E3,5.2797896E3,4.7510195E3,1.6341661E3,5.050254E3,2.2953534E2,2.109689E3,2.6413306E3,8.550936E2,7.790725E2,9.433131E2,4.106941E3,8.65308E1,1.4300453E2],"tree_param":{"num_deleted":"0","num_feature":"14","num_nodes":"15","size_leaf_vector":"1"}},{"base_weights":[-7.313769E-3,2.0075077E-1,-2.2323899E-1,3.899311E-1,-5.4390192E-2,-2.6744655E-1,9.574084E-1,-1.299183E-3,1.4807253E-2,-9.573872E-3,7.14202E-3,-2.975653E-3,-1.2997502E-2,3.2408703E-2,-2.1282312E-2],"categories":[],"categories_nodes":[],"categories_segments":[],"categories_sizes":[],"default_left":[0,0,0,0,0,0,0,0,0,0,0,0,0,0,0],"id":10,"left_children":[1,3,5,7,9,11,13,-1,-1,-1,-1,-1,-1,-1,-1],"loss_changes":[5.230448E2,2.8622577E2,2.9870306E2,1.5293036E2,1.9574321E2,1.5359018E2,4.385643E1,0E0,0E0,0E0,0E0,0E0,0E0,0E0,0E0],"parents":[2147483647,0,0,1,1,2,2,3,3,4,4,5,5,6,6],"right_children":[2,4,6,8,10,12,14,-1,-1,-1,-1,-1,-1,-1,-1],"split_conditions":[7.089889E-4,-3.5103127E-2,7.775315E-3,6.5936375E-1,-8.597034E-2,1.1053148E-3,1.450189E-2,-1.299183E-3,1.4807253E-2,-9.573872E-3,7.14202E-3,-2.975653E-3,-1.2997502E-2,3.2408703E-2,-2.1282312E-2],"split_indices":[1,10,6,13,8,6,9,0,0,0,0,0,0,0,0],"split_type":[0,0,0,0,0,0,0,0,0,0,0,0,0,0,0],"sum_hessian":[1.1638269E4,5.927092E3,5.7111772E3,3.402885E3,2.5242068E3,5.50654E3,2.0463713E2,6.571459E2,2.745739E3,1.3247931E3,1.1994137E3,2.7346262E3,2.7719138E3,1.912421E2,1.3395025E1],"tree_param":{"num_deleted":"0","num_feature":"14","num_nodes":"15","size_leaf_vector":"1"}},{"base_weights":[5.9490735E-3,-1.477858E-1,2.8503406E-1,-3.6912665E-1,7.3501E-2,-2.8019375E-1,4.3883115E-1,-1.2056165E-2,2.2819983E-2,8.486378E-3,-6.0966765E-3,-3.308392E-4,-3.5876613E-2,1.6689258E-2,1.8436104E-3],"categories":[],"categories_nodes":[],"categories_segments":[],"categories_sizes":[],"default_left":[0,0,0,0,0,0,0,0,0,0,0,0,0,0,0],"id":11,"left_children":[1,3,5,7,9,11,13,-1,-1,-1,-1,-1,-1,-1,-1],"loss_changes":[5.016285E2,3.693061E2,3.6124707E2,1.4005914E2,2.186386E2,2.192074E2,1.4469238E2,0E0,0E0,0E0,0E0,0E0,0E0,0E0,0E0],"parents":[2147483647,0,0,1,1,2,2,3,3,4,4,5,5,6,6],"right_children":[2,4,6,8,10,12,14,-1,-1,-1,-1,-1,-1,-1,-1],"split_conditions":[8.2503995E-3,-7.37852E-2,-2.1154472E-1,9.942742E-1,4.173552E-3,-9.260428E-2,1.5982646E-2,-1.2056165E-2,2.2819983E-2,8.486378E-3,-6.0966765E-3,-3.308392E-4,-3.5876613E-2,1.6689258E-2,1.8436104E-3],"split_indices":[9,8,8,13,1,7,1,0,0,0,0,0,0,0,0],"split_type":[0,0,0,0,0,0,0,0,0,0,0,0,0,0,0],"sum_hessian":[1.168762E4,7.536858E3,4.1507617E3,3.7673008E3,3.7695571E3,8.874829E2,3.2632788E3,3.6624385E3,1.04862335E2,2.1458735E3,1.6236838E3,6.874367E2,2.000462E2,2.4878606E3,7.7541815E2],"tree_param":{"num_deleted":"0","num_feature":"14","num_nodes":"15","size_leaf_vector":"1"}},{"base_weights":[4.35026E-3,-1.2089469E-1,3.7089473E-1,-2.9704034E-1,7.0713334E-2,-7.426621E-1,4.7853082E-1,-7.3378724E-3,-4.268179E-2,4.3163617E-4,2.1977693E-2,-2.950156E-2,2.7746527E-2,-9.530787E-3,1.660531E-2],"categories":[],"categories_nodes":[],"categories_segments":[],"categories_sizes":[],"default_left":[0,0,0,0,0,0,0,0,0,0,0,0,0,0,0],"id":12,"left_children":[1,3,5,7,9,11,13,-1,-1,-1,-1,-1,-1,-1,-1],"loss_changes":[5.373907E2,2.9451056E2,3.5802777E2,2.6769305E2,1.5583286E2,1.0760945E2,1.627135E2,0E0,0E0,0E0,0E0,0E0,0E0,0E0,0E0],"parents":[2147483647,0,0,1,1,2,2,3,3,4,4,5,5,6,6],"right_children":[2,4,6,8,10,12,14,-1,-1,-1,-1,-1,-1,-1,-1],"split_conditions":[1.5460404E-2,-7.64043E-2,-2.626603E-1,-7.936587E-2,1.2576304E-2,1.0766731E-1,6.6568083E-3,-7.3378724E-3,-4.268179E-2,4.3163617E-4,2.1977693E-2,-2.950156E-2,2.7746527E-2,-9.530787E-3,1.660531E-2],"split_indices":[2,8,8,8,4,1,9,0,0,0,0,0,0,0,0],"split_type":[0,0,0,0,0,0,0,0,0,0,0,0,0,0,0],"sum_hessian":[1.1701904E4,8.722757E3,2.9791475E3,4.5441816E3,4.1785757E3,2.6154233E2,2.717605E3,4.344223E3,1.9995845E2,3.8527512E3,3.258243E2,2.2926651E2,3.2275833E1,2.3333183E2,2.4842732E3],"tree_param":{"num_deleted":"0","num_feature":"14","num_nodes":"15","size_leaf_vector":"1"}},{"base_weights":[1.113164E-2,3.1342626E-1,-1.3637215E-1,2.9270345E-2,5.091031E-1,-1.542117E-1,1.059602E0,-1.0610049E-2,7.5051244E-3,2.238265E-2,4.32652E-3,-1.5880967E-2,-2.3582273E-3,-4.1981667E-2,3.5499617E-2],"categories":[],"categories_nodes":[],"categories_segments":[],"categories_sizes":[],"default_left":[0,0,0,0,0,0,0,0,0,0,0,0,0,0,0],"id":13,"left_children":[1,3,5,7,9,11,13,-1,-1,-1,-1,-1,-1,-1,-1],"loss_changes":[5.245605E2,2.1447687E2,1.690155E2,1.334387E2,1.9733008E2,2.2092186E2,3.874034E1,0E0,0E0,0E0,0E0,0E0,0E0,0E0,0E0],"parents":[2147483647,0,0,1,1,2,2,3,3,4,4,5,5,6,6],"right_children":[2,4,6,8,10,12,14,-1,-1,-1,-1,-1,-1,-1,-1],"split_conditions":[-1.0879994E-2,5.132031E-1,6.905526E0,-1.0361859E-1,-1.4971378E-1,-1.5606709E-1,7.648437E-1,-1.0610049E-2,7.5051244E-3,2.238265E-2,4.32652E-3,-1.5880967E-2,-2.3582273E-3,-4.1981667E-2,3.5499617E-2],"split_indices":[1,12,11,8,10,8,13,0,0,0,0,0,0,0,0],"split_type":[0,0,0,0,0,0,0,0,0,0,0,0,0,0,0],"sum_hessian":[1.1760271E4,3.8558445E3,7.904427E3,1.5733595E3,2.282485E3,7.7899707E3,1.14455696E2,5.751372E2,9.9822235E2,1.3824954E3,8.999896E2,1.3045726E3,6.4853984E3,4.494876E0,1.09960815E2],"tree_param":{"num_deleted":"0","num_feature":"14","num_nodes":"15","size_leaf_vector":"1"}},{"base_weights":[1.1323851E-2,-9.67629E-2,4.1975152E-1,5.097698E-2,-3.202939E-1,-5.8855116E-1,5.320985E-1,6.775661E-3,-5.1949695E-3,-1.0710229E-2,3.7738703E-2,-6.640343E-3,-4.9896713E-2,1.7650707E-2,-2.532838E-2],"categories":[],"categories_nodes":[],"categories_segments":[],"categories_sizes":[],"default_left":[0,0,0,0,0,0,0,0,0,0,0,0,0,0,0],"id":14,"left_children":[1,3,5,7,9,11,13,-1,-1,-1,-1,-1,-1,-1,-1],"loss_changes":[5.18882E2,3.0697525E2,2.7925223E2,2.1949158E2,2.1521951E2,9.694613E1,1.724372E2,0E0,0E0,0E0,0E0,0E0,0E0,0E0,0E0],"parents":[2147483647,0,0,1,1,2,2,3,3,4,4,5,5,6,6],"right_children":[2,4,6,8,10,12,14,-1,-1,-1,-1,-1,-1,-1,-1],"split_conditions":[1.704301E-2,6.3318457E-3,-2.626603E-1,1.0319036E-2,6.905526E0,3.0401922E-3,3.2301667E0,6.775661E-3,-5.1949695E-3,-1.0710229E-2,3.7738703E-2,-6.640343E-3,-4.9896713E-2,1.7650707E-2,-2.532838E-2],"split_indices":[2,1,8,4,11,6,11,0,0,0,0,0,0,0,0],"split_type":[0,0,0,0,0,0,0,0,0,0,0,0,0,0,0],"sum_hessian":[1.1750033E4,9.292407E3,2.4576267E3,5.5956074E3,3.6967993E3,2.4553125E2,2.2120955E3,3.14322E3,2.4523877E3,3.6142705E3,8.252865E1,1.8479897E2,6.073229E1,2.1263284E3,8.5767006E1],"tree_param":{"num_deleted":"0","num_feature":"14","num_nodes":"15","size_leaf_vector":"1"}},{"base_weights":[1.1079199E-2,-1.6377316E-1,2.8048062E-1,-2.2189815E-1,5.7442266E-1,-7.87517E-1,3.545328E-1,5.592182E-4,-1.0305309E-2,2.8103009E-2,-1.2842358E-2,-4.2903226E-2,-3.130197E-3,2.5093495E-3,1.533073E-2],"categories":[],"categories_nodes":[],"categories_segments":[],"categories_sizes":[],"default_left":[0,0,0,0,0,0,0,0,0,0,0,0,0,0,0],"id":15,"left_children":[1,3,5,7,9,11,13,-1,-1,-1,-1,-1,-1,-1,-1],"loss_changes":[5.51797E2,3.050557E2,3.6518936E2,1.926864E2,1.8935318E2,1.31214E2,1.8274548E2,0E0,0E0,0E0,0E0,0E0,0E0,0E0,0E0],"parents":[2147483647,0,0,1,1,2,2,3,3,4,4,5,5,6,6],"right_children":[2,4,6,8,10,12,14,-1,-1,-1,-1,-1,-1,-1,-1],"split_conditions":[1.2266943E-2,-3.130829E-2,-2.626603E-1,-6.7906613E-3,1.1960107E-3,1.6465575E-2,8.327196E-3,5.592182E-4,-1.0305309E-2,2.8103009E-2,-1.2842358E-2,-4.2903226E-2,-3.130197E-3,2.5093495E-3,1.533073E-2],"split_indices":[2,8,8,1,6,9,9,0,0,0,0,0,0,0,0],"split_type":[0,0,0,0,0,0,0,0,0,0,0,0,0,0,0],"sum_hessian":[1.1710122E4,7.1016494E3,4.608472E3,6.584583E3,5.1706635E2,2.9757062E2,4.3109014E3,2.2117056E3,4.3728774E3,3.7988998E2,1.3717638E2,1.5221336E2,1.4535724E2,1.5796267E3,2.7312747E3],"tree_param":{"num_deleted":"0","num_feature":"14","num_nodes":"15","size_leaf_vector":"1"}},{"base_weights":[6.862065E-3,-1.4951918E-1,2.4782127E-1,-2.1735866E-1,5.8544517E-1,-7.7547E-1,3.1960192E-1,-7.6017166E-3,1.3647972E-2,2.5702262E-2,-1.4200204E-2,-1.1022765E-3,-3.660842E-2,1.3486852E-2,-1.4883671E-3],"categories":[],"categories_nodes":[],"categories_segments":[],"categories_sizes":[],"default_left":[0,0,0,0,0,0,0,0,0,0,0,0,0,0,0],"id":16,"left_children":[1,3,5,7,9,11,13,-1,-1,-1,-1,-1,-1,-1,-1],"loss_changes":[4.4054755E2,3.5376105E2,3.3847577E2,1.575011E2,1.7306415E2,9.921007E1,2.0642651E2,0E0,0E0,0E0,0E0,0E0,0E0,0E0,0E0],"parents":[2147483647,0,0,1,1,2,2,3,3,4,4,5,5,6,6],"right_children":[2,4,6,8,10,12,14,-1,-1,-1,-1,-1,-1,-1,-1],"split_conditions":[1.2266943E-2,-3.2047138E-2,-2.626603E-1,3.5461235E0,1.4634159E-3,-1.971862E-1,2.261612E-1,-7.6017166E-3,1.3647972E-2,2.5702262E-2,-1.4200204E-2,-1.1022765E-3,-3.660842E-2,1.3486852E-2,-1.4883671E-3],"split_indices":[2,8,8,11,6,7,10,0,0,0,0,0,0,0,0],"split_type":[0,0,0,0,0,0,0,0,0,0,0,0,0,0,0],"sum_hessian":[1.1687382E4,7.08804E3,4.5993413E3,6.4903677E3,5.9767255E2,3.001961E2,4.299145E3,6.16139E3,3.2897763E2,4.7606906E2,1.216035E2,1.13636826E2,1.8655927E2,3.1795417E3,1.1196033E3],"tree_param":{"num_deleted":"0","num_feature":"14","num_nodes":"15","size_leaf_vector":"1"}},{"base_weights":[1.4090974E-2,1.7258379E-1,-1.8114702E-1,4.8775575E-3,4.0256765E-1,-4.5393044E-1,-5.8046862E-2,4.906624E-3,-1.3692282E-2,-2.6503827E-2,1.41607765E-2,-1.9371182E-2,6.1209598E-3,-6.022802E-3,8.537605E-3],"categories":[],"categories_nodes":[],"categories_segments":[],"categories_sizes":[],"default_left":[0,0,0,0,0,0,0,0,0,0,0,0,0,0,0],"id":17,"left_children":[1,3,5,7,9,11,13,-1,-1,-1,-1,-1,-1,-1,-1],"loss_changes":[3.628559E2,2.4962343E2,1.7638011E2,2.742544E2,2.4462665E2,2.0637885E2,1.7725667E2,0E0,0E0,0E0,0E0,0E0,0E0,0E0,0E0],"parents":[2147483647,0,0,1,1,2,2,3,3,4,4,5,5,6,6],"right_children":[2,4,6,8,10,12,14,-1,-1,-1,-1,-1,-1,-1,-1],"split_conditions":[6.496735E-4,7.772322E-3,-1.2670752E-1,1.1016445E-2,-2.626603E-1,2.3346594E-2,1.1803236E-2,4.906624E-3,-1.3692282E-2,-2.6503827E-2,1.41607765E-2,-1.9371182E-2,6.1209598E-3,-6.022802E-3,8.537605E-3],"split_indices":[5,9,8,4,8,3,3,0,0,0,0,0,0,0,0],"split_type":[0,0,0,0,0,0,0,0,0,0,0,0,0,0,0],"sum_hessian":[1.1722259E4,6.4701055E3,5.2521533E3,3.742838E3,2.7272673E3,1.6314879E3,3.6206655E3,2.7858376E3,9.5700024E2,1.3855035E2,2.588717E3,1.2633097E3,3.6817825E2,2.5566162E3,1.0640493E3],"tree_param":{"num_deleted":"0","num_feature":"14","num_nodes":"15","size_leaf_vector":"1"}},{"base_weights":[-9.7620115E-3,-1.15039E-1,3.623287E-1,-2.6461178E-1,5.5166192E-2,-5.4941916E-1,4.608814E-1,-2.6106443E-3,-1.7315578E-2,-1.1714223E-3,1.4218759E-2,-5.9003867E-3,-4.7575664E-2,6.0391296E-3,1.8964125E-2],"categories":[],"categories_nodes":[],"categories_segments":[],"categories_sizes":[],"default_left":[0,0,0,0,0,0,0,0,0,0,0,0,0,0,0],"id":18,"left_children":[1,3,5,7,9,11,13,-1,-1,-1,-1,-1,-1,-1,-1],"loss_changes":[4.552759E2,2.3065436E2,2.3081927E2,2.675753E2,1.672875E2,9.111889E1,1.02621826E2,0E0,0E0,0E0,0E0,0E0,0E0,0E0,0E0],"parents":[2147483647,0,0,1,1,2,2,3,3,4,4,5,5,6,6],"right_children":[2,4,6,8,10,12,14,-1,-1,-1,-1,-1,-1,-1,-1],"split_conditions":[1.6528148E-2,-7.64043E-2,-2.626603E-1,9.874664E-4,1.1781557E-2,3.0401922E-3,1.1014229E-2,-2.6106443E-3,-1.7315578E-2,-1.1714223E-3,1.4218759E-2,-5.9003867E-3,-4.7575664E-2,6.0391296E-3,1.8964125E-2],"split_indices":[2,8,8,6,2,6,9,0,0,0,0,0,0,0,0],"split_type":[0,0,0,0,0,0,0,0,0,0,0,0,0,0,0],"sum_hessian":[1.1618179E4,9.057023E3,2.561155E3,4.820106E3,4.2369175E3,2.4894273E2,2.3122124E3,3.0753755E3,1.7447302E3,3.4602878E3,7.766298E2,1.875065E2,6.1436226E1,9.2083344E2,1.3913789E3],"tree_param":{"num_deleted":"0","num_feature":"14","num_nodes":"15","size_leaf_vector":"1"}},{"base_weights":[6.7688827E-3,-8.7381E-2,3.3379424E-1,-2.5223225E-1,1.1163328E-1,-5.885191E-1,4.299428E-1,-1.0372617E-3,-1.598589E-2,1.6965052E-3,2.1916756E-2,-7.2675776E-3,-4.679933E-2,1.4064796E-2,-2.4453621E-2],"categories":[],"categories_nodes":[],"categories_segments":[],"categories_sizes":[],"default_left":[0,0,0,0,0,0,0,0,0,0,0,0,0,0,0],"id":19,"left_children":[1,3,5,7,9,11,13,-1,-1,-1,-1,-1,-1,-1,-1],"loss_changes":[3.598847E2,2.9781384E2,2.3221298E2,3.0320615E2,1.4014728E2,8.250381E1,1.1537448E2,0E0,0E0,0E0,0E0,0E0,0E0,0E0,0E0],"parents":[2147483647,0,0,1,1,2,2,3,3,4,4,5,5,6,6],"right_children":[2,4,6,8,10,12,14,-1,-1,-1,-1,-1,-1,-1,-1],"split_conditions":[1.6348595E-2,-7.37852E-2,-2.626603E-1,4.6111358E-4,1.2576304E-2,3.0401922E-3,3.721224E0,-1.0372617E-3,-1.598589E-2,1.6965052E-3,2.1916756E-2,-7.2675776E-3,-4.679933E-2,1.4064796E-2,-2.4453621E-2],"split_indices":[2,8,8,6,4,6,11,0,0,0,0,0,0,0,0],"split_type":[0,0,0,0,0,0,0,0,0,0,0,0,0,0,0],"sum_hessian":[1.1684697E4,9.073827E3,2.6108694E3,4.962588E3,4.1112393E3,2.4551393E2,2.3653555E3,2.7961462E3,2.1664417E3,3.7772542E3,3.3398526E2,1.828409E2,6.267304E1,2.294931E3,7.0424576E1],"tree_param":{"num_deleted":"0","num_feature":"14","num_nodes":"15","size_leaf_vector":"1"}},{"base_weights":[-1.5727641E-2,-1.2727748E-1,3.5867342E-1,-2.7650136E-1,4.0901586E-2,-1.7532448E0,3.9226434E-1,-6.920783E-3,-3.726472E-2,-1.373282E-3,1.3189541E-2,-3.072477E-3,-6.2438827E-2,-3.18334E-3,1.6116278E-2],"categories":[],"categories_nodes":[],"categories_segments":[],"categories_sizes":[],"default_left":[0,0,0,0,0,0,0,0,0,0,0,0,0,0,0],"id":20,"left_children":[1,3,5,7,9,11,13,-1,-1,-1,-1,-1,-1,-1,-1],"loss_changes":[4.8235696E2,2.2333215E2,1.8945511E2,2.0799646E2,1.4468842E2,2.225064E1,1.887485E2,0E0,0E0,0E0,0E0,0E0,0E0,0E0,0E0],"parents":[2147483647,0,0,1,1,2,2,3,3,4,4,5,5,6,6],"right_children":[2,4,6,8,10,12,14,-1,-1,-1,-1,-1,-1,-1,-1],"split_conditions":[1.6348595E-2,-7.64043E-2,-1.45977E0,-7.936587E-2,1.1781557E-2,3.2301667E0,-2.2269233E-1,-6.920783E-3,-3.726472E-2,-1.373282E-3,1.3189541E-2,-3.072477E-3,-6.2438827E-2,-3.18334E-3,1.6116278E-2],"split_indices":[2,8,10,8,2,11,8,0,0,0,0,0,0,0,0],"split_type":[0,0,0,0,0,0,0,0,0,0,0,0,0,0,0],"sum_hessian":[1.1545297E4,8.896096E3,2.6492012E3,4.7130015E3,4.1830947E3,3.98739E1,2.6093274E3,4.501918E3,2.1108318E2,3.437618E3,7.454768E2,7.0451746E0,3.2828728E1,5.8802155E2,2.0213058E3],"tree_param":{"num_deleted":"0","num_feature":"14","num_nodes":"15","size_leaf_vector":"1"}},{"base_weights":[3.9010078E-3,6.2988424E-1,-5.1098432E-2,-6.5104324E-1,7.149299E-1,-1.7083082E-1,1.154796E-1,-4.8643753E-2,1.024005E-2,-1.1101433E-2,2.2884972E-2,-9.576382E-3,6.741078E-3,1.4379622E-3,2.215938E-2],"categories":[],"categories_nodes":[],"categories_segments":[],"categories_sizes":[],"default_left":[0,0,0,0,0,0,0,0,0,0,0,0,0,0,0],"id":21,"left_children":[1,3,5,7,9,11,13,-1,-1,-1,-1,-1,-1,-1,-1],"loss_changes":[4.018316E2,1.0361932E2,2.14025E2,5.863334E1,4.6555695E1,3.6654382E2,1.8884076E2,0E0,0E0,0E0,0E0,0E0,0E0,0E0,0E0],"parents":[2147483647,0,0,1,1,2,2,3,3,4,4,5,5,6,6],"right_children":[2,4,6,8,10,12,14,-1,-1,-1,-1,-1,-1,-1,-1],"split_conditions":[-2.0570839E-2,-2.626603E-1,-7.64043E-2,9.2719907E-1,-8.6530864E-1,1.1014229E-2,1.2576304E-2,-4.8643753E-2,1.024005E-2,-1.1101433E-2,2.2884972E-2,-9.576382E-3,6.741078E-3,1.4379622E-3,2.215938E-2],"split_indices":[0,8,8,13,11,9,4,0,0,0,0,0,0,0,0],"split_type":[0,0,0,0,0,0,0,0,0,0,0,0,0,0,0],"sum_hessian":[1.1667534E4,9.406378E2,1.0726896E4,5.7735504E1,8.829023E2,6.240977E3,4.485919E3,2.8549768E1,2.9185736E1,3.6763763E1,8.4613855E2,4.538698E3,1.7022788E3,4.0491672E3,4.367518E2],"tree_param":{"num_deleted":"0","num_feature":"14","num_nodes":"15","size_leaf_vector":"1"}},{"base_weights":[4.8196684E-3,-1.0230908E-1,3.1654665E-1,-2.6655737E-1,8.934638E-2,-5.768686E-1,4.0192556E-1,-5.662447E-4,-1.1537326E-2,6.126547E-4,1.52908545E-2,-4.0402062E-2,1.2706356E-3,2.4218181E-2,7.310428E-3],"categories":[],"categories_nodes":[],"categories_segments":[],"categories_sizes":[],"default_left":[0,0,0,0,0,0,0,0,0,0,0,0,0,0,0],"id":22,"left_children":[1,3,5,7,9,11,13,-1,-1,-1,-1,-1,-1,-1,-1],"loss_changes":[3.906802E2,2.7412698E2,2.2870032E2,1.3705505E2,1.1643688E2,1.24929405E2,1.7486826E2,0E0,0E0,0E0,0E0,0E0,0E0,0E0,0E0],"parents":[2147483647,0,0,1,1,2,2,3,3,4,4,5,5,6,6],"right_children":[2,4,6,8,10,12,14,-1,-1,-1,-1,-1,-1,-1,-1],"split_conditions":[1.5460404E-2,-7.37852E-2,-2.626603E-1,1.0319036E-2,-3.130829E-2,1.6465575E-2,-1.7058585E-2,-5.662447E-4,-1.1537326E-2,6.126547E-4,1.52908545E-2,-4.0402062E-2,1.2706356E-3,2.4218181E-2,7.310428E-3],"split_indices":[2,8,8,4,8,9,0,0,0,0,0,0,0,0,0],"split_type":[0,0,0,0,0,0,0,0,0,0,0,0,0,0,0],"sum_hessian":[1.1694851E4,8.704714E3,2.9901365E3,4.687099E3,4.0176147E3,2.5982135E2,2.7303152E3,1.5133771E3,3.1737222E3,3.45345E3,5.6416473E2,1.14774666E2,1.4504666E2,7.643114E2,1.9660038E3],"tree_param":{"num_deleted":"0","num_feature":"14","num_nodes":"15","size_leaf_vector":"1"}},{"base_weights":[1.6242102E-2,-1.262763E-1,2.359917E-1,2.9182747E-1,-2.123766E-1,3.6312243E-1,-1.5782985E-1,1.0739272E-2,-5.6290083E-2,-7.0080664E-3,3.198411E-2,1.5877714E-2,-5.3789434E-3,-2.33323E-2,1.1331957E-2],"categories":[],"categories_nodes":[],"categories_segments":[],"categories_sizes":[],"default_left":[0,0,0,0,0,0,0,0,0,0,0,0,0,0,0],"id":23,"left_children":[1,3,5,7,9,11,13,-1,-1,-1,-1,-1,-1,-1,-1],"loss_changes":[3.6831705E2,2.5693793E2,2.3175217E2,1.7618268E2,1.6106586E2,3.1542328E2,3.758958E2,0E0,0E0,0E0,0E0,0E0,0E0,0E0,0E0],"parents":[2147483647,0,0,1,1,2,2,3,3,4,4,5,5,6,6],"right_children":[2,4,6,8,10,12,14,-1,-1,-1,-1,-1,-1,-1,-1],"split_conditions":[1.2266943E-2,6.6336305E-3,1.8632118E-2,9.6177506E-1,6.785349E-3,2.261612E-1,2.417641E-2,1.0739272E-2,-5.6290083E-2,-7.0080664E-3,3.198411E-2,1.5877714E-2,-5.3789434E-3,-2.33323E-2,1.1331957E-2],"split_indices":[2,4,4,13,6,10,3,0,0,0,0,0,0,0,0],"split_type":[0,0,0,0,0,0,0,0,0,0,0,0,0,0,0],"sum_hessian":[1.1756516E4,7.131948E3,4.624568E3,1.2170695E3,5.9148784E3,3.496128E3,1.1284398E3,1.1826577E3,3.4411797E1,5.8198926E3,9.498608E1,2.676429E3,8.196988E2,5.2261163E2,6.058282E2],"tree_param":{"num_deleted":"0","num_feature":"14","num_nodes":"15","size_leaf_vector":"1"}},{"base_weights":[-4.8853066E-3,-1.01627775E-1,3.265612E-1,-2.5081044E-1,6.378814E-2,3.7403306E-1,-1.1438214E0,-6.1160773E-3,-3.782781E-2,-5.2618897E-3,5.594616E-3,-3.883866E-2,1.2314392E-2,-1.0176382E-2,-5.0748646E-2],"categories":[],"categories_nodes":[],"categories_segments":[],"categories_sizes":[],"default_left":[0,0,0,0,0,0,0,0,0,0,0,0,0,0,0],"id":24,"left_children":[1,3,5,7,9,11,13,-1,-1,-1,-1,-1,-1,-1,-1],"loss_changes":[3.71402E2,2.212821E2,1.8352383E2,2.2303418E2,1.2488609E2,1.5533206E2,3.5144844E1,0E0,0E0,0E0,0E0,0E0,0E0,0E0,0E0],"parents":[2147483647,0,0,1,1,2,2,3,3,4,4,5,5,6,6],"right_children":[2,4,6,8,10,12,14,-1,-1,-1,-1,-1,-1,-1,-1],"split_conditions":[1.6348595E-2,-7.64043E-2,3.0959794E-2,-7.936587E-2,3.5213247E-1,-1.3864937E0,-3.3780602E-1,-6.1160773E-3,-3.782781E-2,-5.2618897E-3,5.594616E-3,-3.883866E-2,1.2314392E-2,-1.0176382E-2,-5.0748646E-2],"split_indices":[2,8,4,8,12,10,8,0,0,0,0,0,0,0,0],"split_type":[0,0,0,0,0,0,0,0,0,0,0,0,0,0,0],"sum_hessian":[1.1578731E4,8.963775E3,2.6149563E3,4.7126094E3,4.2511655E3,2.5346165E3,8.033979E1,4.505632E3,2.0697784E2,1.4410952E3,2.8100703E3,5.270185E1,2.4819146E3,3.38538E1,4.6485985E1],"tree_param":{"num_deleted":"0","num_feature":"14","num_nodes":"15","size_leaf_vector":"1"}},{"base_weights":[1.5570982E-2,-7.881672E-2,3.482851E-1,2.135042E-2,-3.7785625E-1,-5.625887E-1,4.3964332E-1,5.820291E-3,-5.2166763E-3,-3.9914516E-3,-1.8694103E-2,-2.2933153E-2,2.504616E-2,-3.2561976E-2,1.4309925E-2],"categories":[],"categories_nodes":[],"categories_segments":[],"categories_sizes":[],"default_left":[0,0,0,0,0,0,0,0,0,0,0,0,0,0,0],"id":25,"left_children":[1,3,5,7,9,11,13,-1,-1,-1,-1,-1,-1,-1,-1],"loss_changes":[3.664529E2,2.7231018E2,2.1508905E2,2.29679E2,1.3680261E2,6.783094E1,1.3461264E2,0E0,0E0,0E0,0E0,0E0,0E0,0E0,0E0],"parents":[2147483647,0,0,1,1,2,2,3,3,4,4,5,5,6,6],"right_children":[2,4,6,8,10,12,14,-1,-1,-1,-1,-1,-1,-1,-1],"split_conditions":[1.6528148E-2,1.4727255E-2,-2.626603E-1,-3.5103127E-2,4.5185435E-1,5.0357543E-2,-1.3057746E0,5.820291E-3,-5.2166763E-3,-3.9914516E-3,-1.8694103E-2,-2.2933153E-2,2.504616E-2,-3.2561976E-2,1.4309925E-2],"split_indices":[2,1,8,10,12,0,10,0,0,0,0,0,0,0,0],"split_type":[0,0,0,0,0,0,0,0,0,0,0,0,0,0,0],"sum_hessian":[1.1665195E4,9.088425E3,2.57677E3,6.8093896E3,2.2790354E3,2.3394446E2,2.3428257E3,3.6136697E3,3.19572E3,1.1421605E3,1.1368749E3,2.0520984E2,2.8734621E1,5.467135E1,2.2881543E3],"tree_param":{"num_deleted":"0","num_feature":"14","num_nodes":"15","size_leaf_vector":"1"}},{"base_weights":[-7.4647553E-3,2.3153183E-1,-1.2035462E-1,4.2010763E-1,-7.827313E-3,-1.5608943E-1,4.8104626E-1,-4.9308664E-3,1.626983E-2,-7.664531E-3,1.5721884E-2,-8.133072E-3,1.7164196E-3,1.6674869E-2,-5.1590797E-2],"categories":[],"categories_nodes":[],"categories_segments":[],"categories_sizes":[],"default_left":[0,0,0,0,0,0,0,0,0,0,0,0,0,0,0],"id":26,"left_children":[1,3,5,7,9,11,13,-1,-1,-1,-1,-1,-1,-1,-1],"loss_changes":[3.114812E2,1.6718343E2,1.6865988E2,1.4816559E2,2.1551775E2,1.8163904E2,7.436905E1,0E0,0E0,0E0,0E0,0E0,0E0,0E0,0E0],"parents":[2147483647,0,0,1,1,2,2,3,3,4,4,5,5,6,6],"right_children":[2,4,6,8,10,12,14,-1,-1,-1,-1,-1,-1,-1,-1],"split_conditions":[-2.1759989E-3,-1.2159031E-1,-2.9584518E-2,3.7839207E-1,-7.161878E-2,1.2266943E-2,9.6177506E-1,-4.9308664E-3,1.626983E-2,-7.664531E-3,1.5721884E-2,-8.133072E-3,1.7164196E-3,1.6674869E-2,-5.1590797E-2],"split_indices":[5,10,8,12,8,2,13,0,0,0,0,0,0,0,0],"split_type":[0,0,0,0,0,0,0,0,0,0,0,0,0,0,0],"sum_hessian":[1.1540702E4,3.7017368E3,7.838965E3,2.0696675E3,1.6320692E3,7.4007017E3,4.3826334E2,3.578239E2,1.7118435E3,1.1142806E3,5.1778864E2,4.807799E3,2.5929028E3,4.25306E2,1.2957333E1],"tree_param":{"num_deleted":"0","num_feature":"14","num_nodes":"15","size_leaf_vector":"1"}},{"base_weights":[8.702581E-3,-1.0972939E-1,2.2439016E-1,-3.0506423E-1,6.474427E-2,-2.3648377E-1,3.499968E-1,-7.5857393E-3,-3.7257444E-2,-2.650399E-2,3.2303226E-3,4.9201575E-5,-3.1096594E-2,1.3893283E-2,-5.291851E-4],"categories":[],"categories_nodes":[],"categories_segments":[],"categories_sizes":[],"default_left":[0,0,0,0,0,0,0,0,0,0,0,0,0,0,0],"id":27,"left_children":[1,3,5,7,9,11,13,-1,-1,-1,-1,-1,-1,-1,-1],"loss_changes":[2.9786234E2,2.565824E2,2.3943129E2,1.7308759E2,1.6212163E2,1.6887645E2,1.3511514E2,0E0,0E0,0E0,0E0,0E0,0E0,0E0,0E0],"parents":[2147483647,0,0,1,1,2,2,3,3,4,4,5,5,6,6],"right_children":[2,4,6,8,10,12,14,-1,-1,-1,-1,-1,-1,-1,-1],"split_conditions":[8.2503995E-3,-7.64043E-2,-2.1154472E-1,-7.936587E-2,-5.9736885E-2,-9.260428E-2,1.5982646E-2,-7.5857393E-3,-3.7257444E-2,-2.650399E-2,3.2303226E-3,4.9201575E-5,-3.1096594E-2,1.3893283E-2,-5.291851E-4],"split_indices":[9,8,8,8,7,7,1,0,0,0,0,0,0,0,0],"split_type":[0,0,0,0,0,0,0,0,0,0,0,0,0,0,0],"sum_hessian":[1.16566875E4,7.525494E3,4.1311934E3,3.5497815E3,3.9757126E3,8.844002E2,3.2467932E3,3.3648162E3,1.8496536E2,1.7051895E2,3.8051936E3,6.8308905E2,2.0131119E2,2.4824768E3,7.643164E2],"tree_param":{"num_deleted":"0","num_feature":"14","num_nodes":"15","size_leaf_vector":"1"}},{"base_weights":[-1.0155423E-2,5.05296E-1,-5.203803E-2,6.976079E-1,-7.962808E-2,4.4630595E-2,-2.1289231E-1,-5.0795846E-2,2.1800995E-2,-1.736475E-2,1.4829589E-2,-3.103551E-5,2.478543E-2,-8.207728E-3,2.1398207E-2],"categories":[],"categories_nodes":[],"categories_segments":[],"categories_sizes":[],"default_left":[0,0,0,0,0,0,0,0,0,0,0,0,0,0,0],"id":28,"left_children":[1,3,5,7,9,11,13,-1,-1,-1,-1,-1,-1,-1,-1],"loss_changes":[2.4768285E2,9.709508E1,1.6500488E2,4.760431E1,6.2207775E1,2.365911E2,2.2431592E2,0E0,0E0,0E0,0E0,0E0,0E0,0E0,0E0],"parents":[2147483647,0,0,1,1,2,2,3,3,4,4,5,5,6,6],"right_children":[2,4,6,8,10,12,14,-1,-1,-1,-1,-1,-1,-1,-1],"split_conditions":[-2.0570839E-2,1.8632118E-2,1.1053148E-3,-1.0172002E0,1.7309958E-2,-3.130829E-2,7.244789E-3,-5.0795846E-2,2.1800995E-2,-1.736475E-2,1.4829589E-2,-3.103551E-5,2.478543E-2,-8.207728E-3,2.1398207E-2],"split_indices":[0,4,6,11,9,8,6,0,0,0,0,0,0,0,0],"split_type":[0,0,0,0,0,0,0,0,0,0,0,0,0,0,0],"sum_hessian":[1.1468497E4,8.6017303E2,1.0608324E4,6.4705005E2,2.13123E2,6.6270874E3,3.9812366E3,6.4034705E0,6.4064655E2,1.1397504E2,9.914796E1,6.2631367E3,3.6395065E2,3.737687E3,2.4354962E2],"tree_param":{"num_deleted":"0","num_feature":"14","num_nodes":"15","size_leaf_vector":"1"}},{"base_weights":[-3.7104196E-3,-1.2466954E-1,1.8505672E-1,-1.7797214E-1,5.0509846E-1,-6.308486E-1,2.4230558E-1,-5.973765E-3,3.15788E-2,1.7767642E-2,-5.3396657E-2,-4.006604E-2,-3.9011682E-3,1.2074637E-2,3.4001562E-6],"categories":[],"categories_nodes":[],"categories_segments":[],"categories_sizes":[],"default_left":[0,0,0,0,0,0,0,0,0,0,0,0,0,0,0],"id":29,"left_children":[1,3,5,7,9,11,13,-1,-1,-1,-1,-1,-1,-1,-1],"loss_changes":[2.6379483E2,2.3654108E2,2.1105693E2,1.6944676E2,1.1163612E2,1.0425028E2,1.636197E2,0E0,0E0,0E0,0E0,0E0,0E0,0E0,0E0],"parents":[2147483647,0,0,1,1,2,2,3,3,4,4,5,5,6,6],"right_children":[2,4,6,8,10,12,14,-1,-1,-1,-1,-1,-1,-1,-1],"split_conditions":[1.2266943E-2,-3.130829E-2,-2.626603E-1,6.905526E0,8.772444E-3,2.516101E-2,1.1917754E-2,-5.973765E-3,3.15788E-2,1.7767642E-2,-5.3396657E-2,-4.006604E-2,-3.9011682E-3,1.2074637E-2,3.4001562E-6],"split_indices":[2,8,8,11,3,3,10,0,0,0,0,0,0,0,0],"split_type":[0,0,0,0,0,0,0,0,0,0,0,0,0,0,0],"sum_hessian":[1.1549152E4,7.0392114E3,4.509941E3,6.491238E3,5.4797363E2,2.943831E2,4.2155576E3,6.3831904E3,1.08047455E2,5.292674E2,1.8706245E1,1.2091326E2,1.7346982E2,2.5365789E3,1.678979E3],"tree_param":{"num_deleted":"0","num_feature":"14","num_nodes":"15","size_leaf_vector":"1"}},{"base_weights":[2.069639E-3,-1.2607521E-1,1.7309353E-1,-1.7518142E-1,3.8839015E-1,3.0590555E-1,-2.0447929E-1,-6.9021527E-3,9.51365E-3,1.492451E-2,-3.458933E-2,2.9589187E-3,1.6214611E-2,-9.653684E-3,2.1077802E-2],"categories":[],"categories_nodes":[],"categories_segments":[],"categories_sizes":[],"default_left":[0,0,0,0,0,0,0,0,0,0,0,0,0,0,0],"id":30,"left_children":[1,3,5,7,9,11,13,-1,-1,-1,-1,-1,-1,-1,-1],"loss_changes":[2.5224033E2,1.6635901E2,2.4734236E2,1.6248894E2,9.765483E1,1.7726309E2,1.3708774E2,0E0,0E0,0E0,0E0,0E0,0E0,0E0,0E0],"parents":[2147483647,0,0,1,1,2,2,3,3,4,4,5,5,6,6],"right_children":[2,4,6,8,10,12,14,-1,-1,-1,-1,-1,-1,-1,-1],"split_conditions":[7.3720217E-3,-3.2047138E-2,1.5982646E-2,9.7784054E-1,1.0011643E-2,6.523417E-1,3.1886056E-2,-6.9021527E-3,9.51365E-3,1.492451E-2,-3.458933E-2,2.9589187E-3,1.6214611E-2,-9.653684E-3,2.1077802E-2],"split_indices":[9,8,1,13,2,12,2,0,0,0,0,0,0,0,0],"split_type":[0,0,0,0,0,0,0,0,0,0,0,0,0,0,0],"sum_hessian":[1.1505512E4,6.577583E3,4.9279287E3,6.0056562E3,5.719267E2,3.645867E3,1.2820618E3,5.4041724E3,6.01484E2,5.35388E2,3.653871E1,1.9370983E3,1.7087687E3,1.1363855E3,1.456763E2],"tree_param":{"num_deleted":"0","num_feature":"14","num_nodes":"15","size_leaf_vector":"1"}},{"base_weights":[-1.1218508E-2,5.2119035E-1,-5.552929E-2,-1.0764903E0,5.861603E-1,-7.4489444E-2,8.4446126E-1,3.2549098E-2,-5.852384E-2,-1.5889062E-2,1.9851461E-2,1.8458877E-3,-7.2161225E-3,3.877387E-3,3.290626E-2],"categories":[],"categories_nodes":[],"categories_segments":[],"categories_sizes":[],"default_left":[0,0,0,0,0,0,0,0,0,0,0,0,0,0,0],"id":31,"left_children":[1,3,5,7,9,11,13,-1,-1,-1,-1,-1,-1,-1,-1],"loss_changes":[2.7136966E2,9.30014E1,1.8132172E2,7.082976E1,7.240643E1,2.349519E2,3.9297745E1,0E0,0E0,0E0,0E0,0E0,0E0,0E0,0E0],"parents":[2147483647,0,0,1,1,2,2,3,3,4,4,5,5,6,6],"right_children":[2,4,6,8,10,12,14,-1,-1,-1,-1,-1,-1,-1,-1],"split_conditions":[-2.0570839E-2,-8.6530864E-1,7.775315E-3,1.164762E-2,-2.626603E-1,4.173552E-3,3.7907008E-2,3.2549098E-2,-5.852384E-2,-1.5889062E-2,1.9851461E-2,1.8458877E-3,-7.2161225E-3,3.877387E-3,3.290626E-2],"split_indices":[0,11,6,4,8,1,1,0,0,0,0,0,0,0,0],"split_type":[0,0,0,0,0,0,0,0,0,0,0,0,0,0,0],"sum_hessian":[1.1498429E4,8.8179865E2,1.061663E4,3.324053E1,8.485581E2,1.039938E4,2.1724992E2,9.434529E0,2.3805998E1,5.3053E1,7.9550507E2,5.717291E3,4.682089E3,5.746031E1,1.5978961E2],"tree_param":{"num_deleted":"0","num_feature":"14","num_nodes":"15","size_leaf_vector":"1"}},{"base_weights":[-3.3910759E-3,-1.1535361E-1,2.0035674E-1,-1.6341747E-1,4.264301E-1,3.6822847E-1,-1.22855194E-1,-4.386298E-3,-3.387126E-2,2.3681628E-2,2.1101818E-3,-2.8155435E-2,1.2104093E-2,-1.0009258E-2,9.632521E-3],"categories":[],"categories_nodes":[],"categories_segments":[],"categories_sizes":[],"default_left":[0,0,0,0,0,0,0,0,0,0,0,0,0,0,0],"id":32,"left_children":[1,3,5,7,9,11,13,-1,-1,-1,-1,-1,-1,-1,-1],"loss_changes":[2.6278986E2,1.9373233E2,2.2175343E2,1.1315793E2,7.825667E1,1.24603516E2,1.3103699E2,0E0,0E0,0E0,0E0,0E0,0E0,0E0,0E0],"parents":[2147483647,0,0,1,1,2,2,3,3,4,4,5,5,6,6],"right_children":[2,4,6,8,10,12,14,-1,-1,-1,-1,-1,-1,-1,-1],"split_conditions":[8.2503995E-3,-3.2047138E-2,1.7498303E-2,-3.381876E-2,-2.1007108E-2,5.624499E-1,1.7309958E-2,-4.386298E-3,-3.387126E-2,2.3681628E-2,2.1101818E-3,-2.8155435E-2,1.2104093E-2,-1.0009258E-2,9.632521E-3],"split_indices":[9,8,4,8,7,13,9,0,0,0,0,0,0,0,0],"split_type":[0,0,0,0,0,0,0,0,0,0,0,0,0,0,0],"sum_hessian":[1.1515721E4,7.432382E3,4.0833394E3,6.828035E3,6.0434644E2,2.6873098E3,1.3960295E3,6.710752E3,1.17283585E2,2.9808234E2,3.0626407E2,6.922414E1,2.6180857E3,9.469196E2,4.4910992E2],"tree_param":{"num_deleted":"0","num_feature":"14","num_nodes":"15","size_leaf_vector":"1"}},{"base_weights":[-1.2241943E-3,1.3950163E-1,-1.795707E-1,-6.367445E-2,3.1045756E-1,-2.2469294E-1,7.6814735E-1,-4.833136E-3,1.1401136E-2,-2.3396526E-2,1.0621355E-2,-1.4271189E-2,-3.1434915E-3,3.9889414E-2,8.750423E-3],"categories":[],"categories_nodes":[],"categories_segments":[],"categories_sizes":[],"default_left":[0,0,0,0,0,0,0,0,0,0,0,0,0,0,0],"id":33,"left_children":[1,3,5,7,9,11,13,-1,-1,-1,-1,-1,-1,-1,-1],"loss_changes":[2.8967737E2,2.2412259E2,2.18031E2,1.2763433E2,1.6707288E2,1.4620227E2,6.1240143E1,0E0,0E0,0E0,0E0,0E0,0E0,0E0,0E0],"parents":[2147483647,0,0,1,1,2,2,3,3,4,4,5,5,6,6],"right_children":[2,4,6,8,10,12,14,-1,-1,-1,-1,-1,-1,-1,-1],"split_conditions":[3.461438E-3,5.0823617E-1,7.244789E-3,-4.0598847E-2,-2.626603E-1,-1.21982574E-1,1.38497185E-2,-4.833136E-3,1.1401136E-2,-2.3396526E-2,1.0621355E-2,-1.4271189E-2,-3.1434915E-3,3.9889414E-2,8.750423E-3],"split_indices":[1,12,6,8,8,8,2,0,0,0,0,0,0,0,0],"split_type":[0,0,0,0,0,0,0,0,0,0,0,0,0,0,0],"sum_hessian":[1.1537873E4,6.4493745E3,5.0884985E3,2.9475515E3,3.5018232E3,4.858695E3,2.2980371E2,2.4179036E3,5.2964795E2,1.3330954E2,3.3685137E3,1.5687717E3,3.289923E3,1.0384481E2,1.259589E2],"tree_param":{"num_deleted":"0","num_feature":"14","num_nodes":"15","size_leaf_vector":"1"}},{"base_weights":[-4.123019E-3,-8.473633E-2,2.7109313E-1,-8.231171E-3,-3.0803302E-1,4.47177E-1,-7.4615285E-2,3.3372133E-3,-8.54624E-3,-1.8780168E-2,-3.7932699E-3,1.5691975E-2,-4.843268E-2,-6.181533E-3,3.5332583E-2],"categories":[],"categories_nodes":[],"categories_segments":[],"categories_sizes":[],"default_left":[0,0,0,0,0,0,0,0,0,0,0,0,0,0,0],"id":34,"left_children":[1,3,5,7,9,11,13,-1,-1,-1,-1,-1,-1,-1,-1],"loss_changes":[2.5562868E2,1.522354E2,1.5896689E2,2.1950789E2,1.3114821E2,2.7231003E2,1.4576567E2,0E0,0E0,0E0,0E0,0E0,0E0,0E0,0E0],"parents":[2147483647,0,0,1,1,2,2,3,3,4,4,5,5,6,6],"right_children":[2,4,6,8,10,12,14,-1,-1,-1,-1,-1,-1,-1,-1],"split_conditions":[1.6348595E-2,1.4727255E-2,7.584566E-2,2.1404117E-1,-1.6138622E-1,3.2301667E0,1.0766731E-1,3.3372133E-3,-8.54624E-3,-1.8780168E-2,-3.7932699E-3,1.5691975E-2,-4.843268E-2,-6.181533E-3,3.5332583E-2],"split_indices":[2,1,10,10,10,11,1,0,0,0,0,0,0,0,0],"split_type":[0,0,0,0,0,0,0,0,0,0,0,0,0,0,0],"sum_hessian":[1.1517955E4,8.909628E3,2.608327E3,6.6375625E3,2.2720657E3,1.7277329E3,8.805941E2,4.6364536E3,2.001109E3,8.2411414E2,1.4479515E3,1.6678314E3,5.9901455E1,7.984662E2,8.212795E1],"tree_param":{"num_deleted":"0","num_feature":"14","num_nodes":"15","size_leaf_vector":"1"}},{"base_weights":[1.5561943E-2,1.4610133E-1,-1.2124377E-1,-3.922621E-2,3.007734E-1,-1.508211E-1,9.938444E-1,1.254466E-2,-3.958526E-3,1.4770929E-2,1.8262855E-3,-1.4649154E-2,-2.2693132E-3,3.2758653E-2,-3.501565E-2],"categories":[],"categories_nodes":[],"categories_segments":[],"categories_sizes":[],"default_left":[0,0,0,0,0,0,0,0,0,0,0,0,0,0,0],"id":35,"left_children":[1,3,5,7,9,11,13,-1,-1,-1,-1,-1,-1,-1,-1],"loss_changes":[2.0815182E2,1.7098988E2,1.8800723E2,1.15256424E2,1.4937463E2,1.4063452E2,3.3784607E1,0E0,0E0,0E0,0E0,0E0,0E0,0E0,0E0],"parents":[2147483647,0,0,1,1,2,2,3,3,4,4,5,5,6,6],"right_children":[2,4,6,8,10,12,14,-1,-1,-1,-1,-1,-1,-1,-1],"split_conditions":[1.1439467E-3,5.0823617E-1,8.63918E-3,6.6336305E-3,-1.4971378E-1,-1.5606709E-1,3.729122E-2,1.254466E-2,-3.958526E-3,1.4770929E-2,1.8262855E-3,-1.4649154E-2,-2.2693132E-3,3.2758653E-2,-3.501565E-2],"split_indices":[1,12,6,4,10,8,4,0,0,0,0,0,0,0,0],"split_type":[0,0,0,0,0,0,0,0,0,0,0,0,0,0,0],"sum_hessian":[1.1651612E4,5.962288E3,5.689324E3,2.7130337E3,3.2492544E3,5.544001E3,1.4532324E2,4.5611966E2,2.2569138E3,1.8053386E3,1.4439158E3,1.00798596E3,4.5360146E3,1.3995854E2,5.364699E0],"tree_param":{"num_deleted":"0","num_feature":"14","num_nodes":"15","size_leaf_vector":"1"}},{"base_weights":[1.1640834E-2,5.0890833E-1,-2.9426215E-2,6.9601023E-1,-7.007664E-2,7.369774E-2,-1.7001662E-1,-1.7415771E-2,2.2071565E-2,-2.1452498E-2,1.6455032E-2,-2.0805316E-2,3.2908213E-3,-6.2701046E-3,2.1383995E-2],"categories":[],"categories_nodes":[],"categories_segments":[],"categories_sizes":[],"default_left":[0,0,0,0,0,0,0,0,0,0,0,0,0,0,0],"id":36,"left_children":[1,3,5,7,9,11,13,-1,-1,-1,-1,-1,-1,-1,-1],"loss_changes":[2.3683925E2,9.593945E1,1.5535129E2,3.475705E1,8.77216E1,1.7086784E2,1.5634476E2,0E0,0E0,0E0,0E0,0E0,0E0,0E0,0E0],"parents":[2147483647,0,0,1,1,2,2,3,3,4,4,5,5,6,6],"right_children":[2,4,6,8,10,12,14,-1,-1,-1,-1,-1,-1,-1,-1],"split_conditions":[-2.0570839E-2,1.8632118E-2,7.9815916E-4,2.4600515E-1,1.7309958E-2,4.7653738E-1,7.775315E-3,-1.7415771E-2,2.2071565E-2,-2.1452498E-2,1.6455032E-2,-2.0805316E-2,3.2908213E-3,-6.2701046E-3,2.1383995E-2],"split_indices":[0,4,6,12,9,13,6,0,0,0,0,0,0,0,0],"split_type":[0,0,0,0,0,0,0,0,0,0,0,0,0,0,0],"sum_hessian":[1.1594185E4,8.827285E2,1.0711456E4,6.668337E2,2.1589487E2,6.179618E3,4.531838E3,1.9295374E1,6.475383E2,1.0553687E2,1.1035799E2,2.7530777E2,5.9043105E3,4.3416294E3,1.9020827E2],"tree_param":{"num_deleted":"0","num_feature":"14","num_nodes":"15","size_leaf_vector":"1"}},{"base_weights":[-1.3856202E-2,-1.3505778E-1,1.7342946E-1,-2.0783092E-1,2.549047E-1,-1.1331789E-1,3.5321626E-1,-6.936896E-3,3.2654703E-2,-4.3834068E-2,9.313887E-3,-2.1663284E-2,5.8961185E-3,8.9118695E-3,2.7552407E-2],"categories":[],"categories_nodes":[],"categories_segments":[],"categories_sizes":[],"default_left":[0,0,0,0,0,0,0,0,0,0,0,0,0,0,0],"id":37,"left_children":[1,3,5,7,9,11,13,-1,-1,-1,-1,-1,-1,-1,-1],"loss_changes":[2.596566E2,1.9718468E2,2.3177745E2,1.7805577E2,1.0511907E2,3.2728198E2,8.714163E1,0E0,0E0,0E0,0E0,0E0,0E0,0E0,0E0],"parents":[2147483647,0,0,1,1,2,2,3,3,4,4,5,5,6,6],"right_children":[2,4,6,8,10,12,14,-1,-1,-1,-1,-1,-1,-1,-1],"split_conditions":[1.2266943E-2,-3.8671505E-2,-1.4833744E-1,6.785349E-3,5.5857707E-2,5.9290874E-1,2.7242556E-2,-6.936896E-3,3.2654703E-2,-4.3834068E-2,9.313887E-3,-2.1663284E-2,5.8961185E-3,8.9118695E-3,2.7552407E-2],"split_indices":[2,8,8,6,12,12,2,0,0,0,0,0,0,0,0],"split_type":[0,0,0,0,0,0,0,0,0,0,0,0,0,0,0],"sum_hessian":[1.1434897E4,6.942578E3,4.4923193E3,5.8515254E3,1.0910526E3,1.731476E3,2.7608433E3,5.7493906E3,1.02134834E2,3.2629173E1,1.0584235E3,5.8312103E2,1.1483549E3,2.5141104E3,2.4673285E2],"tree_param":{"num_deleted":"0","num_feature":"14","num_nodes":"15","size_leaf_vector":"1"}},{"base_weights":[-7.2245956E-3,-7.4891144E-1,1.7485263E-2,-8.667362E-1,1.4899337E0,-6.580236E-2,3.3558077E-1,-1.5702795E-2,-4.3101665E-2,5.084892E-2,2.0007284E-2,-3.6932286E-3,8.580545E-3,-3.175881E-2,1.1058331E-2],"categories":[],"categories_nodes":[],"categories_segments":[],"categories_sizes":[],"default_left":[0,0,0,0,0,0,0,0,0,0,0,0,0,0,0],"id":38,"left_children":[1,3,5,7,9,11,13,-1,-1,-1,-1,-1,-1,-1,-1],"loss_changes":[2.1043938E2,1.0024191E2,2.9446158E2,6.756546E1,9.8669815E-1,1.7766183E2,1.0698624E2,0E0,0E0,0E0,0E0,0E0,0E0,0E0,0E0],"parents":[2147483647,0,0,1,1,2,2,3,3,4,4,5,5,6,6],"right_children":[2,4,6,8,10,12,14,-1,-1,-1,-1,-1,-1,-1,-1],"split_conditions":[-2.626603E-1,6.905526E0,1.6348595E-2,3.2800955E-1,8.141943E0,-3.8671505E-2,-1.3864937E0,-1.5702795E-2,-4.3101665E-2,5.084892E-2,2.0007284E-2,-3.6932286E-3,8.580545E-3,-3.175881E-2,1.1058331E-2],"split_indices":[8,11,2,11,11,8,10,0,0,0,0,0,0,0,0],"split_type":[0,0,0,0,0,0,0,0,0,0,0,0,0,0,0],"sum_hessian":[1.1479064E4,3.682136E2,1.1110852E4,3.5096872E2,1.7244864E1,8.80659E3,2.3042617E3,2.214333E2,1.295354E2,1.2109337E1,5.135526E0,7.57419E3,1.2323997E3,5.1889874E1,2.252372E3],"tree_param":{"num_deleted":"0","num_feature":"14","num_nodes":"15","size_leaf_vector":"1"}},{"base_weights":[7.4030263E-3,-8.8779666E-2,1.8387191E-1,-2.3823236E-1,6.1622072E-2,3.4007323E-1,-1.2692647E-1,-1.8835486E-3,-1.2657927E-2,1.811549E-2,1.3563418E-4,1.312015E-2,-7.808946E-4,-1.6420517E-2,9.6992785E-3],"categories":[],"categories_nodes":[],"categories_segments":[],"categories_sizes":[],"default_left":[0,0,0,0,0,0,0,0,0,0,0,0,0,0,0],"id":39,"left_children":[1,3,5,7,9,11,13,-1,-1,-1,-1,-1,-1,-1,-1],"loss_changes":[1.9521715E2,1.6736005E2,1.9705733E2,1.2030138E2,1.149218E2,9.6194855E1,2.5751215E2,0E0,0E0,0E0,0E0,0E0,0E0,0E0,0E0],"parents":[2147483647,0,0,1,1,2,2,3,3,4,4,5,5,6,6],"right_children":[2,4,6,8,10,12,14,-1,-1,-1,-1,-1,-1,-1,-1],"split_conditions":[8.2503995E-3,-7.37852E-2,1.7498303E-2,4.6111358E-4,-6.842704E-2,1.6262967E-2,2.417641E-2,-1.8835486E-3,-1.2657927E-2,1.811549E-2,1.3563418E-4,1.312015E-2,-7.808946E-4,-1.6420517E-2,9.6992785E-3],"split_indices":[9,8,4,6,8,1,3,0,0,0,0,0,0,0,0],"split_type":[0,0,0,0,0,0,0,0,0,0,0,0,0,0,0],"sum_hessian":[1.1497534E4,7.4422173E3,4.0553164E3,3.7323005E3,3.709917E3,2.6987751E3,1.3565413E3,1.9103964E3,1.821904E3,3.5163724E2,3.3582798E3,2.1319707E3,5.668045E2,7.012718E2,6.5526953E2],"tree_param":{"num_deleted":"0","num_feature":"14","num_nodes":"15","size_leaf_vector":"1"}},{"base_weights":[1.8863165E-3,1.4154942E-1,-1.4579554E-1,2.855531E-1,-7.949472E-2,-1.676972E-1,1.0895844E0,-2.8632993E-2,9.428307E-3,-5.13051E-3,1.7215101E-2,-1.5609192E-2,-2.632361E-3,3.956251E-2,-4.6684038E-2],"categories":[],"categories_nodes":[],"categories_segments":[],"categories_sizes":[],"default_left":[0,0,0,0,0,0,0,0,0,0,0,0,0,0,0],"id":40,"left_children":[1,3,5,7,9,11,13,-1,-1,-1,-1,-1,-1,-1,-1],"loss_changes":[2.3744098E2,1.8837646E2,1.5175774E2,1.2821759E2,1.3984744E2,1.5495197E2,6.3362885E1,0E0,0E0,0E0,0E0,0E0,0E0,0E0,0E0],"parents":[2147483647,0,0,1,1,2,2,3,3,4,4,5,5,6,6],"right_children":[2,4,6,8,10,12,14,-1,-1,-1,-1,-1,-1,-1,-1],"split_conditions":[1.1439467E-3,5.0282157E-3,6.905526E0,-2.626603E-1,-3.943377E-2,-1.5606709E-1,5.9842602E-3,-2.8632993E-2,9.428307E-3,-5.13051E-3,1.7215101E-2,-1.5609192E-2,-2.632361E-3,3.956251E-2,-4.6684038E-2],"split_indices":[1,10,11,8,8,8,0,0,0,0,0,0,0,0,0],"split_type":[0,0,0,0,0,0,0,0,0,0,0,0,0,0,0],"sum_hessian":[1.1507895E4,5.9145615E3,5.593333E3,3.5810383E3,2.3335232E3,5.4975967E3,9.57367E1,7.96161E1,3.501422E3,2.0480918E3,2.8543152E2,1.0141049E3,4.4834917E3,8.902838E1,6.708318E0],"tree_param":{"num_deleted":"0","num_feature":"14","num_nodes":"15","size_leaf_vector":"1"}},{"base_weights":[-1.0157233E-2,1.14364974E-1,-1.754649E-1,2.2498739E-1,-2.0295899E-1,-2.1076082E-1,8.9885885E-1,1.1985804E-3,1.2173312E-2,-8.714905E-3,1.463955E-2,-7.268392E-3,1.3463433E-2,-4.7574725E-2,2.9600155E-2],"categories":[],"categories_nodes":[],"categories_segments":[],"categories_sizes":[],"default_left":[0,0,0,0,0,0,0,0,0,0,0,0,0,0,0],"id":41,"left_children":[1,3,5,7,9,11,13,-1,-1,-1,-1,-1,-1,-1,-1],"loss_changes":[2.3667543E2,2.302969E2,1.8769395E2,1.6267027E2,1.0287978E2,9.96743E1,3.749642E1,0E0,0E0,0E0,0E0,0E0,0E0,0E0,0E0],"parents":[2147483647,0,0,1,1,2,2,3,3,4,4,5,5,6,6],"right_children":[2,4,6,8,10,12,14,-1,-1,-1,-1,-1,-1,-1,-1],"split_conditions":[4.173552E-3,2.261612E-1,8.63918E-3,1.1576716E-2,9.7106695E-1,-2.9584518E-2,4.6380836E-1,1.1985804E-3,1.2173312E-2,-8.714905E-3,1.463955E-2,-7.268392E-3,1.3463433E-2,-4.7574725E-2,2.9600155E-2],"split_indices":[1,10,6,2,13,8,13,0,0,0,0,0,0,0,0],"split_type":[0,0,0,0,0,0,0,0,0,0,0,0,0,0,0],"sum_hessian":[1.1493815E4,6.555976E3,4.93784E3,4.861714E3,1.6942618E3,4.782328E3,1.5551141E2,2.4038562E3,2.457858E3,1.5047762E3,1.8948566E2,4.5654165E3,2.1691188E2,4.143799E0,1.5136761E2],"tree_param":{"num_deleted":"0","num_feature":"14","num_nodes":"15","size_leaf_vector":"1"}},{"base_weights":[2.0316169E-3,1.2985303E-1,-1.4744173E-1,-7.561568E-1,1.6545835E-1,-1.7863578E-1,6.13765E-1,-3.575502E-2,-8.190311E-3,7.6809595E-3,-3.858279E-3,4.196902E-3,-7.0267883E-3,2.534083E-2,-4.0268127E-2],"categories":[],"categories_nodes":[],"categories_segments":[],"categories_sizes":[],"default_left":[0,0,0,0,0,0,0,0,0,0,0,0,0,0,0],"id":42,"left_children":[1,3,5,7,9,11,13,-1,-1,-1,-1,-1,-1,-1,-1],"loss_changes":[2.1961952E2,1.9571933E2,1.2603671E2,4.981357E1,1.5876775E2,9.02249E1,9.669263E1,0E0,0E0,0E0,0E0,0E0,0E0,0E0,0E0],"parents":[2147483647,0,0,1,1,2,2,3,3,4,4,5,5,6,6],"right_children":[2,4,6,8,10,12,14,-1,-1,-1,-1,-1,-1,-1,-1],"split_conditions":[4.6111358E-4,4.7653738E-1,7.775315E-3,-4.2335987E-2,2.261612E-1,-1.1828029E-2,1.450189E-2,-3.575502E-2,-8.190311E-3,7.6809595E-3,-3.858279E-3,4.196902E-3,-7.0267883E-3,2.534083E-2,-4.0268127E-2],"split_indices":[6,13,6,7,10,1,9,0,0,0,0,0,0,0,0],"split_type":[0,0,0,0,0,0,0,0,0,0,0,0,0,0,0],"sum_hessian":[1.1490853E4,6.1941865E3,5.296666E3,2.377402E2,5.9564463E3,5.089625E3,2.0704077E2,1.234687E2,1.1427151E2,4.5540464E3,1.4023999E3,7.558109E2,4.3338145E3,1.8619495E2,2.0845833E1],"tree_param":{"num_deleted":"0","num_feature":"14","num_nodes":"15","size_leaf_vector":"1"}},{"base_weights":[1.3663919E-2,4.727125E-1,-2.1685177E-2,6.469642E-1,-5.7279248E-2,8.114212E-2,-1.4410405E-1,2.1450602E-2,-7.961589E-3,-1.6709492E-2,1.11199925E-2,-5.1774927E-3,4.9762535E-3,-5.683936E-3,2.244089E-2],"categories":[],"categories_nodes":[],"categories_segments":[],"categories_sizes":[],"default_left":[0,0,0,0,0,0,0,0,0,0,0,0,0,0,0],"id":43,"left_children":[1,3,5,7,9,11,13,-1,-1,-1,-1,-1,-1,-1,-1],"loss_changes":[1.8774127E2,7.6469894E1,1.352592E2,3.9043884E1,4.4576042E1,1.2561319E2,1.9878203E2,0E0,0E0,0E0,0E0,0E0,0E0,0E0,0E0],"parents":[2147483647,0,0,1,1,2,2,3,3,4,4,5,5,6,6],"right_children":[2,4,6,8,10,12,14,-1,-1,-1,-1,-1,-1,-1,-1],"split_conditions":[-2.1356804E-2,1.8632118E-2,4.173552E-3,3.088262E-1,2.7242556E-2,6.572922E-1,7.244789E-3,2.1450602E-2,-7.961589E-3,-1.6709492E-2,1.11199925E-2,-5.1774927E-3,4.9762535E-3,-5.683936E-3,2.244089E-2],"split_indices":[0,4,1,10,2,13,6,0,0,0,0,0,0,0,0],"split_type":[0,0,0,0,0,0,0,0,0,0,0,0,0,0,0],"sum_hessian":[1.1566456E4,8.252244E2,1.0741231E4,6.207061E2,2.0451833E2,5.8381104E3,4.903121E3,5.7802167E2,4.2684402E1,9.4070724E1,1.104476E2,1.4610516E3,4.377059E3,4.6673833E3,2.3573758E2],"tree_param":{"num_deleted":"0","num_feature":"14","num_nodes":"15","size_leaf_vector":"1"}},{"base_weights":[-6.843283E-3,9.063842E-2,-1.5695508E-1,1.969103E-1,-2.0244029E-1,-1.8019947E-1,1.1182057E0,6.551341E-3,-3.4068473E-2,-8.231658E-3,1.3937338E-2,-2.770899E-2,-3.7623327E-3,4.011371E-2,-1.28216045E-2],"categories":[],"categories_nodes":[],"categories_segments":[],"categories_sizes":[],"default_left":[0,0,0,0,0,0,0,0,0,0,0,0,0,0,0],"id":44,"left_children":[1,3,5,7,9,11,13,-1,-1,-1,-1,-1,-1,-1,-1],"loss_changes":[1.6693788E2,2.1550708E2,1.3353447E2,1.4573276E2,8.863474E1,1.7951155E2,2.8443947E1,0E0,0E0,0E0,0E0,0E0,0E0,0E0,0E0],"parents":[2147483647,0,0,1,1,2,2,3,3,4,4,5,5,6,6],"right_children":[2,4,6,8,10,12,14,-1,-1,-1,-1,-1,-1,-1,-1],"split_conditions":[6.3318457E-3,2.1921527E-1,6.905526E0,4.252647E-3,8.937294E-1,-7.943463E-1,5.9842602E-3,6.551341E-3,-3.4068473E-2,-8.231658E-3,1.3937338E-2,-2.770899E-2,-3.7623327E-3,4.011371E-2,-1.28216045E-2],"split_indices":[1,10,11,6,12,10,0,0,0,0,0,0,0,0,0],"split_type":[0,0,0,0,0,0,0,0,0,0,0,0,0,0,0],"sum_hessian":[1.1404252E4,6.9146875E3,4.4895645E3,5.0750894E3,1.839598E3,4.4108774E3,7.8686745E1,4.996269E3,7.88204E1,1.6615511E3,1.7804684E2,3.00577E2,4.110301E3,6.916058E1,9.526157E0],"tree_param":{"num_deleted":"0","num_feature":"14","num_nodes":"15","size_leaf_vector":"1"}},{"base_weights":[9.988174E-3,-2.4146048E-2,5.423956E-1,4.743487E-2,-2.4643554E-1,6.55873E-1,-1.0502183E0,4.498397E-3,-6.671902E-3,-3.3504482E-2,-4.558261E-3,-3.1429283E-2,2.1926178E-2,3.8109172E-2,-4.019147E-2],"categories":[],"categories_nodes":[],"categories_segments":[],"categories_sizes":[],"default_left":[0,0,0,0,0,0,0,0,0,0,0,0,0,0,0],"id":45,"left_children":[1,3,5,7,9,11,13,-1,-1,-1,-1,-1,-1,-1,-1],"loss_changes":[2.0976797E2,1.726294E2,1.27062195E2,2.2708339E2,2.1700343E2,8.463092E1,3.49944E1,0E0,0E0,0E0,0E0,0E0,0E0,0E0,0E0],"parents":[2147483647,0,0,1,1,2,2,3,3,4,4,5,5,6,6],"right_children":[2,4,6,8,10,12,14,-1,-1,-1,-1,-1,-1,-1,-1],"split_conditions":[2.7242556E-2,3.1965293E-3,3.0959794E-2,2.261612E-1,-7.9334754E-1,-1.2507628E0,6.2804776E-1,4.498397E-3,-6.671902E-3,-3.3504482E-2,-4.558261E-3,-3.1429283E-2,2.1926178E-2,3.8109172E-2,-4.019147E-2],"split_indices":[2,5,4,10,11,10,12,0,0,0,0,0,0,0,0],"split_type":[0,0,0,0,0,0,0,0,0,0,0,0,0,0,0],"sum_hessian":[1.1539195E4,1.0845751E4,6.9344403E2,8.205135E3,2.6406167E3,6.4841907E2,4.502499E1,5.9467817E3,2.2583525E3,2.564858E2,2.3841309E3,2.6249933E1,6.221691E2,4.242493E0,4.0782497E1],"tree_param":{"num_deleted":"0","num_feature":"14","num_nodes":"15","size_leaf_vector":"1"}},{"base_weights":[-7.445324E-4,4.3189523E-1,-3.603668E-2,-4.1102564E-1,4.9668962E-1,-5.3551435E-2,6.4974064E-1,1.0608276E-2,-4.3945998E-2,9.951782E-3,2.077552E-2,-2.3971354E-3,1.2399411E-2,-5.7265062E-2,2.3335023E-2],"categories":[],"categories_nodes":[],"categories_segments":[],"categories_sizes":[],"default_left":[0,0,0,0,0,0,0,0,0,0,0,0,0,0,0],"id":46,"left_children":[1,3,5,7,9,11,13,-1,-1,-1,-1,-1,-1,-1,-1],"loss_changes":[1.7485727E2,4.7581894E1,1.2724658E2,5.1598984E1,2.548021E1,1.2711444E2,8.94396E1,0E0,0E0,0E0,0E0,0E0,0E0,0E0,0E0],"parents":[2147483647,0,0,1,1,2,2,3,3,4,4,5,5,6,6],"right_children":[2,4,6,8,10,12,14,-1,-1,-1,-1,-1,-1,-1,-1],"split_conditions":[-2.0570839E-2,-2.626603E-1,3.3551868E-2,-4.655171E-2,6.621497E-1,-3.130829E-2,-1.1642141E0,1.0608276E-2,-4.3945998E-2,9.951782E-3,2.077552E-2,-2.3971354E-3,1.2399411E-2,-5.7265062E-2,2.3335023E-2],"split_indices":[0,8,2,1,12,8,10,0,0,0,0,0,0,0,0],"split_type":[0,0,0,0,0,0,0,0,0,0,0,0,0,0,0],"sum_hessian":[1.1447904E4,8.617235E2,1.0586181E4,6.0748554E1,8.00975E2,1.0324341E4,2.618399E2,3.597506E1,2.4773495E1,4.3767197E2,3.63303E2,9.774271E3,5.5006934E2,1.115824E1,2.5068166E2],"tree_param":{"num_deleted":"0","num_feature":"14","num_nodes":"15","size_leaf_vector":"1"}},{"base_weights":[5.18343E-4,-6.367715E-2,2.4999674E-1,5.7357937E-2,-1.9384731E-1,2.9441717E-1,-1.0527998E0,-1.0356044E-3,1.2919439E-2,-6.821031E-3,2.4015812E-2,3.9796582E-3,1.5397532E-2,1.64671E-2,-3.6146343E-2],"categories":[],"categories_nodes":[],"categories_segments":[],"categories_sizes":[],"default_left":[0,0,0,0,0,0,0,0,0,0,0,0,0,0,0],"id":47,"left_children":[1,3,5,7,9,11,13,-1,-1,-1,-1,-1,-1,-1,-1],"loss_changes":[1.8442851E2,1.4432297E2,1.3700792E2,1.6285735E2,1.4747073E2,8.0595566E1,2.0357468E1,0E0,0E0,0E0,0E0,0E0,0E0,0E0,0E0],"parents":[2147483647,0,0,1,1,2,2,3,3,4,4,5,5,6,6],"right_children":[2,4,6,8,10,12,14,-1,-1,-1,-1,-1,-1,-1,-1],"split_conditions":[1.704301E-2,1.0319036E-2,3.0959794E-2,9.462913E-3,6.785349E-3,6.84033E-1,-5.0422594E-2,-1.0356044E-3,1.2919439E-2,-6.821031E-3,2.4015812E-2,3.9796582E-3,1.5397532E-2,1.64671E-2,-3.6146343E-2],"split_indices":[2,4,4,4,6,12,0,0,0,0,0,0,0,0,0],"split_type":[0,0,0,0,0,0,0,0,0,0,0,0,0,0,0],"sum_hessian":[1.151172E4,9.156952E3,2.354767E3,4.7455522E3,4.4114004E3,2.2786226E3,7.614441E1,3.809687E3,9.358653E2,4.2690337E3,1.423666E2,1.312003E3,9.666195E2,6.1502852E0,6.9994125E1],"tree_param":{"num_deleted":"0","num_feature":"14","num_nodes":"15","size_leaf_vector":"1"}},{"base_weights":[2.0474307E-2,1.4115137E-1,-1.0933178E-1,-1.5966538E-2,2.8388795E-1,-1.3965388E-1,6.3345265E-1,-5.372529E-2,1.2765489E-4,-1.3292477E-2,1.0332087E-2,-1.0830911E-4,-8.378545E-3,3.7521254E-2,2.3085354E-3],"categories":[],"categories_nodes":[],"categories_segments":[],"categories_sizes":[],"default_left":[0,0,0,0,0,0,0,0,0,0,0,0,0,0,0],"id":48,"left_children":[1,3,5,7,9,11,13,-1,-1,-1,-1,-1,-1,-1,-1],"loss_changes":[1.806273E2,1.3401695E2,1.2530241E2,1.0217245E2,1.3805113E2,1.0142187E2,7.477874E1,0E0,0E0,0E0,0E0,0E0,0E0,0E0,0E0],"parents":[2147483647,0,0,1,1,2,2,3,3,4,4,5,5,6,6],"right_children":[2,4,6,8,10,12,14,-1,-1,-1,-1,-1,-1,-1,-1],"split_conditions":[1.1439467E-3,5.2178913E-1,7.244789E-3,3.8607404E-2,5.552147E-3,1.1053148E-3,1.38497185E-2,-5.372529E-2,1.2765489E-4,-1.3292477E-2,1.0332087E-2,-1.0830911E-4,-8.378545E-3,3.7521254E-2,2.3085354E-3],"split_indices":[1,12,6,12,2,6,2,0,0,0,0,0,0,0,0],"split_type":[0,0,0,0,0,0,0,0,0,0,0,0,0,0,0],"sum_hessian":[1.152694E4,5.973433E3,5.5535073E3,2.8443162E3,3.129117E3,5.337253E3,2.1625446E2,3.0068363E1,2.8142476E3,2.394879E2,2.8896292E3,2.7043928E3,2.63286E3,1.0134762E2,1.1490684E2],"tree_param":{"num_deleted":"0","num_feature":"14","num_nodes":"15","size_leaf_vector":"1"}},{"base_weights":[4.398209E-3,-6.461444E-2,2.4174939E-1,1.281831E-2,-1.9321345E-1,-1.5031313E0,2.775543E-1,-2.5800115E-3,5.84627E-3,3.142354E-2,-6.4967386E-3,6.3810786E-3,-6.133654E-2,1.2817832E-2,2.9979038E-4],"categories":[],"categories_nodes":[],"categories_segments":[],"categories_sizes":[],"default_left":[0,0,0,0,0,0,0,0,0,0,0,0,0,0,0],"id":49,"left_children":[1,3,5,7,9,11,13,-1,-1,-1,-1,-1,-1,-1,-1],"loss_changes":[1.8769128E2,8.840351E1,1.6209273E2,9.975315E1,9.708738E1,4.9373985E1,1.0137018E2,0E0,0E0,0E0,0E0,0E0,0E0,0E0,0E0],"parents":[2147483647,0,0,1,1,2,2,3,3,4,4,5,5,6,6],"right_children":[2,4,6,8,10,12,14,-1,-1,-1,-1,-1,-1,-1,-1],"split_conditions":[1.6348595E-2,1.1053148E-3,-1.3864937E0,-4.084352E-2,-1.672121E-1,-5.0422594E-2,6.5136276E-2,-2.5800115E-3,5.84627E-3,3.142354E-2,-6.4967386E-3,6.3810786E-3,-6.133654E-2,1.2817832E-2,2.9979038E-4],"split_indices":[2,6,10,7,7,0,10,0,0,0,0,0,0,0,0],"split_type":[0,0,0,0,0,0,0,0,0,0,0,0,0,0,0],"sum_hessian":[1.1454494E4,8.87534E3,2.5791538E3,5.540852E3,3.3344875E3,5.0211956E1,2.528942E3,3.5921362E3,1.948716E3,5.9962963E1,3.2745247E3,1.2334986E1,3.7876972E1,1.6208467E3,9.0809515E2],"tree_param":{"num_deleted":"0","num_feature":"14","num_nodes":"15","size_leaf_vector":"1"}},{"base_weights":[2.4882218E-2,-5.4692096E-1,4.614699E-2,-1.1128681E0,-1.4050166E-2,-1.54843265E-2,3.2677114E-1,-4.200568E-2,5.8892295E-3,-5.0043315E-2,6.923664E-3,-4.124066E-3,4.083192E-3,-3.8457047E-2,1.0736368E-2],"categories":[],"categories_nodes":[],"categories_segments":[],"categories_sizes":[],"default_left":[0,0,0,0,0,0,0,0,0,0,0,0,0,0,0],"id":50,"left_children":[1,3,5,7,9,11,13,-1,-1,-1,-1,-1,-1,-1,-1],"loss_changes":[1.4106253E2,1.2541724E2,1.9342468E2,7.642055E1,8.8356316E1,1.6962936E2,1.0169646E2,0E0,0E0,0E0,0E0,0E0,0E0,0E0,0E0],"parents":[2147483647,0,0,1,1,2,2,3,3,4,4,5,5,6,6],"right_children":[2,4,6,8,10,12,14,-1,-1,-1,-1,-1,-1,-1,-1],"split_conditions":[-2.5653553E-1,2.516101E-2,1.7384643E-2,1.9397404E-2,-5.156953E-1,-7.224234E-2,-1.45977E0,-4.200568E-2,5.8892295E-3,-5.0043315E-2,6.923664E-3,-4.124066E-3,4.083192E-3,-3.8457047E-2,1.0736368E-2],"split_indices":[8,3,2,0,11,8,10,0,0,0,0,0,0,0,0],"split_type":[0,0,0,0,0,0,0,0,0,0,0,0,0,0,0],"sum_hessian":[1.1595089E4,4.139755E2,1.1181113E4,1.9970137E2,2.1427412E2,9.169234E3,2.0118784E3,1.6364713E2,3.6054237E1,2.612888E1,1.8814525E2,5.080866E3,4.0883687E3,3.6641155E1,1.9752373E3],"tree_param":{"num_deleted":"0","num_feature":"14","num_nodes":"15","size_leaf_vector":"1"}},{"base_weights":[8.701463E-3,7.34446E-2,-1.903939E-1,1.7497227E-1,-2.0944582E-1,-9.361434E-1,-1.1025763E-1,5.165636E-4,9.212455E-3,-8.695471E-3,1.3167581E-2,-4.7339927E-3,-3.812012E-2,-2.926433E-2,-1.1021406E-3],"categories":[],"categories_nodes":[],"categories_segments":[],"categories_sizes":[],"default_left":[0,0,0,0,0,0,0,0,0,0,0,0,0,0,0],"id":51,"left_children":[1,3,5,7,9,11,13,-1,-1,-1,-1,-1,-1,-1,-1],"loss_changes":[1.4700397E2,2.4724007E2,1.6703952E2,1.3199426E2,1.1878628E2,7.0233765E1,1.6081712E2,0E0,0E0,0E0,0E0,0E0,0E0,0E0,0E0],"parents":[2147483647,0,0,1,1,2,2,3,3,4,4,5,5,6,6],"right_children":[2,4,6,8,10,12,14,-1,-1,-1,-1,-1,-1,-1,-1],"split_conditions":[1.5982646E-2,2.3191597E-1,-7.9334754E-1,5.0823617E-1,1.0301235E-2,2.8681663E-1,-7.7771807E-1,5.165636E-4,9.212455E-3,-8.695471E-3,1.3167581E-2,-4.7339927E-3,-3.812012E-2,-2.926433E-2,-1.1021406E-3],"split_indices":[1,10,11,12,9,12,10,0,0,0,0,0,0,0,0],"split_type":[0,0,0,0,0,0,0,0,0,0,0,0,0,0,0],"sum_hessian":[1.1400277E4,8.603724E3,2.7965532E3,6.331978E3,2.2717458E3,2.6927853E2,2.5272747E3,2.8869272E3,3.4450508E3,2.0220938E3,2.4965219E2,8.182951E1,1.87449E2,1.9600783E2,2.3312668E3],"tree_param":{"num_deleted":"0","num_feature":"14","num_nodes":"15","size_leaf_vector":"1"}},{"base_weights":[1.6445067E-2,1.7720605E-1,-5.9258066E-2,2.1421002E-1,-4.368273E-1,-7.985782E-2,6.9700295E-1,9.1720605E-4,1.0630398E-2,-2.5124386E-2,2.1904998E-2,1.5258632E-4,-7.147145E-3,1.2979327E-3,3.0345568E-2],"categories":[],"categories_nodes":[],"categories_segments":[],"categories_sizes":[],"default_left":[0,0,0,0,0,0,0,0,0,0,0,0,0,0,0],"id":52,"left_children":[1,3,5,7,9,11,13,-1,-1,-1,-1,-1,-1,-1,-1],"loss_changes":[1.4101038E2,8.447006E1,1.2283367E2,9.004463E1,1.0010818E2,1.0319638E2,4.2904015E1,0E0,0E0,0E0,0E0,0E0,0E0,0E0,0E0],"parents":[2147483647,0,0,1,1,2,2,3,3,4,4,5,5,6,6],"right_children":[2,4,6,8,10,12,14,-1,-1,-1,-1,-1,-1,-1,-1],"split_conditions":[-1.0879994E-2,2.7052333E0,7.775315E-3,5.132031E-1,-3.5055358E-2,1.5982646E-2,5.4301903E-2,9.1720605E-4,1.0630398E-2,-2.5124386E-2,2.1904998E-2,1.5258632E-4,-7.147145E-3,1.2979327E-3,3.0345568E-2],"split_indices":[1,11,6,12,7,1,1,0,0,0,0,0,0,0,0],"split_type":[0,0,0,0,0,0,0,0,0,0,0,0,0,0,0],"sum_hessian":[1.1582891E4,3.707362E3,7.8755283E3,3.4978696E3,2.0949252E2,7.668437E3,2.0709134E2,1.5150145E3,1.982855E3,1.5637172E2,5.31208E1,4.992662E3,2.6757751E3,6.800805E1,1.3908328E2],"tree_param":{"num_deleted":"0","num_feature":"14","num_nodes":"15","size_leaf_vector":"1"}},{"base_weights":[1.119227E-2,4.13195E-1,-1.8903552E-2,-5.6891844E-2,4.4277263E-1,5.7470113E-2,-1.4775734E-1,2.6522683E-2,9.522633E-3,-2.6465927E-3,5.2175936E-3,-5.7979645E-3,1.6228622E-2],"categories":[],"categories_nodes":[],"categories_segments":[],"categories_sizes":[],"default_left":[0,0,0,0,0,0,0,0,0,0,0,0,0],"id":53,"left_children":[1,3,5,-1,7,9,11,-1,-1,-1,-1,-1,-1],"loss_changes":[1.3921028E2,5.6425842E1,1.0537121E2,0E0,4.3301987E1,1.1409073E2,1.250931E2,0E0,0E0,0E0,0E0,0E0,0E0],"parents":[2147483647,0,0,1,1,2,2,4,4,5,5,6,6],"right_children":[2,4,6,-1,8,10,12,-1,-1,-1,-1,-1,-1],"split_conditions":[-2.1356804E-2,9.026425E-3,1.1053148E-3,-5.6891844E-2,1.236483E-2,4.991405E-1,7.244789E-3,2.6522683E-2,9.522633E-3,-2.6465927E-3,5.2175936E-3,-5.7979645E-3,1.6228622E-2],"split_indices":[0,3,6,0,3,12,6,0,0,0,0,0,0],"split_type":[0,0,0,0,0,0,0,0,0,0,0,0,0],"sum_hessian":[1.150302E4,7.9941626E2,1.0703604E4,8.512088E0,7.909042E2,6.7210435E3,3.9825598E3,1.7227637E2,6.186278E2,2.9858896E3,3.7351536E3,3.7370637E3,2.4549608E2],"tree_param":{"num_deleted":"0","num_feature":"14","num_nodes":"13","size_leaf_vector":"1"}},{"base_weights":[5.754038E-3,-5.8872715E-2,2.2804633E-1,-1.8775463E-1,9.607154E-2,-4.7804722E-1,3.0461648E-1,-2.1551743E-3,-1.3086119E-2,2.3478118E-4,1.1583991E-2,-4.7698673E-3,-4.3240428E-2,1.0342218E-2,-1.7796401E-2],"categories":[],"categories_nodes":[],"categories_segments":[],"categories_sizes":[],"default_left":[0,0,0,0,0,0,0,0,0,0,0,0,0,0,0],"id":54,"left_children":[1,3,5,7,9,11,13,-1,-1,-1,-1,-1,-1,-1,-1],"loss_changes":[1.6416861E2,1.7684038E2,1.3945506E2,1.3915312E2,1.0293543E2,7.717568E1,8.410788E1,0E0,0E0,0E0,0E0,0E0,0E0,0E0,0E0],"parents":[2147483647,0,0,1,1,2,2,3,3,4,4,5,5,6,6],"right_children":[2,4,6,8,10,12,14,-1,-1,-1,-1,-1,-1,-1,-1],"split_conditions":[1.6348595E-2,-7.37852E-2,-2.5653553E-1,1.2676439E-3,6.7773955E-3,2.8550974E-3,3.2301667E0,-2.1551743E-3,-1.3086119E-2,2.3478118E-4,1.1583991E-2,-4.7698673E-3,-4.3240428E-2,1.0342218E-2,-1.7796401E-2],"split_indices":[2,8,8,6,9,6,11,0,0,0,0,0,0,0,0],"split_type":[0,0,0,0,0,0,0,0,0,0,0,0,0,0,0],"sum_hessian":[1.14236875E4,8.851711E3,2.5719763E3,4.8320283E3,4.0196824E3,2.5059767E2,2.3213787E3,3.2965718E3,1.5354565E3,3.0836091E3,9.3607336E2,1.8999886E2,6.059881E1,2.2232534E3,9.812541E1],"tree_param":{"num_deleted":"0","num_feature":"14","num_nodes":"15","size_leaf_vector":"1"}},{"base_weights":[1.250842E-2,3.92968E-1,-1.7941669E-2,5.664371E-1,-1.4682019E-1,-4.268298E-2,3.8562775E-1,-1.9103827E-2,1.8142898E-2,-2.9296324E-2,8.8982675E-3,-9.1703475E-4,-3.0254731E-2,1.8270794E-2,-1.1416654E-2],"categories":[],"categories_nodes":[],"categories_segments":[],"categories_sizes":[],"default_left":[0,0,0,0,0,0,0,0,0,0,0,0,0,0,0],"id":55,"left_children":[1,3,5,7,9,11,13,-1,-1,-1,-1,-1,-1,-1,-1],"loss_changes":[1.3271971E2,7.965854E1,1.0595186E2,3.0417068E1,7.7128555E1,1.16912506E2,1.0538172E2,0E0,0E0,0E0,0E0,0E0,0E0,0E0,0E0],"parents":[2147483647,0,0,1,1,2,2,3,3,4,4,5,5,6,6],"right_children":[2,4,6,8,10,12,14,-1,-1,-1,-1,-1,-1,-1,-1],"split_conditions":[-2.0570839E-2,1.8632118E-2,-3.2047138E-2,9.026425E-3,2.417641E-2,-3.381876E-2,6.6336305E-3,-1.9103827E-2,1.8142898E-2,-2.9296324E-2,8.8982675E-3,-9.1703475E-4,-3.0254731E-2,1.8270794E-2,-1.1416654E-2],"split_indices":[0,4,8,3,3,8,4,0,0,0,0,0,0,0,0],"split_type":[0,0,0,0,0,0,0,0,0,0,0,0,0,0,0],"sum_hessian":[1.1452924E4,8.4694403E2,1.06059795E4,6.4088666E2,2.0605737E2,9.995012E3,6.109678E2,1.8819721E1,6.2206696E2,7.093067E1,1.351267E2,9.873225E3,1.2178701E2,4.73359E2,1.3760878E2],"tree_param":{"num_deleted":"0","num_feature":"14","num_nodes":"15","size_leaf_vector":"1"}},{"base_weights":[-1.0047093E-3,-1.03500895E-1,1.5766203E-1,2.4224608E-1,-1.7146122E-1,-1.0118404E-1,3.1698647E-1,1.1694208E-2,-8.042519E-3,-5.8355215E-3,2.2560485E-2,-2.147198E-2,5.9909956E-3,7.0581905E-4,1.310614E-2],"categories":[],"categories_nodes":[],"categories_segments":[],"categories_sizes":[],"default_left":[0,0,0,0,0,0,0,0,0,0,0,0,0,0,0],"id":56,"left_children":[1,3,5,7,9,11,13,-1,-1,-1,-1,-1,-1,-1,-1],"loss_changes":[1.8548468E2,1.6290088E2,1.8466559E2,8.598954E1,1.2361847E2,3.15918E2,9.7475494E1,0E0,0E0,0E0,0E0,0E0,0E0,0E0,0E0],"parents":[2147483647,0,0,1,1,2,2,3,3,4,4,5,5,6,6],"right_children":[2,4,6,8,10,12,14,-1,-1,-1,-1,-1,-1,-1,-1],"split_conditions":[1.2266943E-2,6.5843426E-3,-1.4833744E-1,1.2963472E-3,5.929862E-3,5.9290874E-1,7.115977E-3,1.1694208E-2,-8.042519E-3,-5.8355215E-3,2.2560485E-2,-2.147198E-2,5.9909956E-3,7.0581905E-4,1.310614E-2],"split_indices":[2,4,8,6,6,12,9,0,0,0,0,0,0,0,0],"split_type":[0,0,0,0,0,0,0,0,0,0,0,0,0,0,0],"sum_hessian":[1.1401495E4,6.927279E3,4.4742163E3,1.137112E3,5.7901665E3,1.7049703E3,2.769246E3,8.824313E2,2.546808E2,5.650667E3,1.3949965E2,5.594825E2,1.1454879E3,8.038764E2,1.9653696E3],"tree_param":{"num_deleted":"0","num_feature":"14","num_nodes":"15","size_leaf_vector":"1"}},{"base_weights":[-5.514837E-3,-5.818389E-2,2.03773E-1,4.132268E-2,-2.0567457E-1,2.5028333E-1,-9.826854E-1,-2.2524686E-3,1.0473092E-2,-1.9521115E-2,-1.8427349E-3,8.68452E-3,-2.8520787E-2,-4.364957E-2,-6.7213904E-3],"categories":[],"categories_nodes":[],"categories_segments":[],"categories_sizes":[],"default_left":[0,0,0,0,0,0,0,0,0,0,0,0,0,0,0],"id":57,"left_children":[1,3,5,7,9,11,13,-1,-1,-1,-1,-1,-1,-1,-1],"loss_changes":[1.2520548E2,1.3319933E2,1.26515945E2,1.9425214E2,2.3463148E2,1.0408728E2,3.0361061E1,0E0,0E0,0E0,0E0,0E0,0E0,0E0,0E0],"parents":[2147483647,0,0,1,1,2,2,3,3,4,4,5,5,6,6],"right_children":[2,4,6,8,10,12,14,-1,-1,-1,-1,-1,-1,-1,-1],"split_conditions":[1.704301E-2,1.1016445E-2,3.374347E0,9.962051E-3,1.1032495E-2,3.0959794E-2,3.4302744E-1,-2.2524686E-3,1.0473092E-2,-1.9521115E-2,-1.8427349E-3,8.68452E-3,-2.8520787E-2,-4.364957E-2,-6.7213904E-3],"split_indices":[2,4,11,2,3,4,10,0,0,0,0,0,0,0,0],"split_type":[0,0,0,0,0,0,0,0,0,0,0,0,0,0,0],"sum_hessian":[1.1354423E4,9.072656E3,2.2817666E3,5.41846E3,3.6541968E3,2.197212E3,8.455472E1,3.932623E3,1.4858368E3,8.927944E2,2.7614023E3,2.1292302E3,6.798158E1,5.098043E1,3.3574284E1],"tree_param":{"num_deleted":"0","num_feature":"14","num_nodes":"15","size_leaf_vector":"1"}},{"base_weights":[7.1524815E-3,-5.4711705E-1,2.7616503E-2,-1.058091E0,1.5819438E-2,-6.464104E-2,1.6374819E-1,-2.0031746E-2,-4.648486E-2,-5.251136E-3,4.2938333E-2,-3.3534563E-3,1.2971698E-2,7.889037E-3,-4.3033394E-3],"categories":[],"categories_nodes":[],"categories_segments":[],"categories_sizes":[],"default_left":[0,0,0,0,0,0,0,0,0,0,0,0,0,0,0],"id":58,"left_children":[1,3,5,7,9,11,13,-1,-1,-1,-1,-1,-1,-1,-1],"loss_changes":[1.294968E2,1.16964836E2,1.3829384E2,3.8813034E1,5.328617E1,1.5388895E2,1.3564616E2,0E0,0E0,0E0,0E0,0E0,0E0,0E0,0E0],"parents":[2147483647,0,0,1,1,2,2,3,3,4,4,5,5,6,6],"right_children":[2,4,6,8,10,12,14,-1,-1,-1,-1,-1,-1,-1,-1],"split_conditions":[-2.5653553E-1,2.652086E-2,7.3720217E-3,1.3526438E-1,4.7476063E0,-3.130829E-2,1.5982646E-2,-2.0031746E-2,-4.648486E-2,-5.251136E-3,4.2938333E-2,-3.3534563E-3,1.2971698E-2,7.889037E-3,-4.3033394E-3],"split_indices":[8,3,9,11,11,8,1,0,0,0,0,0,0,0,0],"split_type":[0,0,0,0,0,0,0,0,0,0,0,0,0,0,0],"sum_hessian":[1.1412206E4,4.0451147E2,1.1007694E4,2.1111998E2,1.9339148E2,6.561776E3,4.4459185E3,1.2028476E2,9.083522E1,1.7195775E2,2.1433731E1,5.9947544E3,5.670215E2,3.3607295E3,1.0851887E3],"tree_param":{"num_deleted":"0","num_feature":"14","num_nodes":"15","size_leaf_vector":"1"}},{"base_weights":[1.1149168E-2,-7.453189E-3,5.857885E-1,-1.2161272E-1,1.0712936E-1,7.304981E-1,-8.014943E-1,-8.976478E-3,3.0975107E-3,5.4635555E-3,-7.258451E-3,1.3476446E-2,3.592827E-2,3.8187932E-2,-3.5122357E-2],"categories":[],"categories_nodes":[],"categories_segments":[],"categories_sizes":[],"default_left":[0,0,0,0,0,0,0,0,0,0,0,0,0,0,0],"id":59,"left_children":[1,3,5,7,9,11,13,-1,-1,-1,-1,-1,-1,-1,-1],"loss_changes":[1.2275668E2,1.4554596E2,7.346127E1,2.2265202E2,1.454537E2,4.1905487E1,2.9765247E1,0E0,0E0,0E0,0E0,0E0,0E0,0E0,0E0],"parents":[2147483647,0,0,1,1,2,2,3,3,4,4,5,5,6,6],"right_children":[2,4,6,8,10,12,14,-1,-1,-1,-1,-1,-1,-1,-1],"split_conditions":[3.3551868E-2,-8.597034E-2,3.0959794E-2,6.073008E-1,7.571248E-1,8.732638E-1,6.2804776E-1,-8.976478E-3,3.0975107E-3,5.4635555E-3,-7.258451E-3,1.3476446E-2,3.592827E-2,3.8187932E-2,-3.5122357E-2],"split_indices":[2,8,4,12,12,12,12,0,0,0,0,0,0,0,0],"split_type":[0,0,0,0,0,0,0,0,0,0,0,0,0,0,0],"sum_hessian":[1.1480883E4,1.1122788E4,3.580954E2,5.571617E3,5.5511704E3,3.251277E2,3.29677E1,3.1125645E3,2.4590527E3,4.570326E3,9.8084454E2,2.0537755E2,1.1975014E2,4.241968E0,2.8725733E1],"tree_param":{"num_deleted":"0","num_feature":"14","num_nodes":"15","size_leaf_vector":"1"}},{"base_weights":[3.414401E-3,-7.1231E-2,1.4277762E-1,-2.580672E-1,4.37968E-2,2.5068423E-1,-1.119532E-1,-2.2264691E-2,-3.2365413E-3,6.612998E-3,-2.5327613E-3,-2.4925187E-4,1.13042705E-2,-1.6588008E-2,8.477133E-3],"categories":[],"categories_nodes":[],"categories_segments":[],"categories_sizes":[],"default_left":[0,0,0,0,0,0,0,0,0,0,0,0,0,0,0],"id":60,"left_children":[1,3,5,7,9,11,13,-1,-1,-1,-1,-1,-1,-1,-1],"loss_changes":[1.187259E2,1.597497E2,1.09475395E2,2.0575836E2,1.0426161E2,9.136644E1,2.0663158E2,0E0,0E0,0E0,0E0,0E0,0E0,0E0,0E0],"parents":[2147483647,0,0,1,1,2,2,3,3,4,4,5,5,6,6],"right_children":[2,4,6,8,10,12,14,-1,-1,-1,-1,-1,-1,-1,-1],"split_conditions":[8.2503995E-3,-4.5135938E-2,1.8632118E-2,8.985151E-3,7.9815916E-4,1.2342019E-2,2.417641E-2,-2.2264691E-2,-3.2365413E-3,6.612998E-3,-2.5327613E-3,-2.4925187E-4,1.13042705E-2,-1.6588008E-2,8.477133E-3],"split_indices":[9,7,4,3,6,2,3,0,0,0,0,0,0,0,0],"split_type":[0,0,0,0,0,0,0,0,0,0,0,0,0,0,0],"sum_hessian":[1.1408898E4,7.430155E3,3.9787441E3,2.8303748E3,4.59978E3,2.7948489E3,1.1838951E3,6.683079E2,2.162067E3,1.934042E3,2.665738E3,9.159165E2,1.8789324E3,5.586546E2,6.252405E2],"tree_param":{"num_deleted":"0","num_feature":"14","num_nodes":"15","size_leaf_vector":"1"}},{"base_weights":[1.449982E-2,-2.8715355E-3,5.70025E-1,5.7882324E-2,-1.9133727E-1,6.77389E-1,-7.402927E-1,5.6135785E-3,-3.1795532E-3,-2.8209083E-2,-3.165966E-3,6.9656023E-3,2.8506989E-2,-5.2442655E-2,2.718011E-2],"categories":[],"categories_nodes":[],"categories_segments":[],"categories_sizes":[],"default_left":[0,0,0,0,0,0,0,0,0,0,0,0,0,0,0],"id":61,"left_children":[1,3,5,7,9,11,13,-1,-1,-1,-1,-1,-1,-1,-1],"loss_changes":[1.10307945E2,1.26953285E2,4.9762695E1,1.7761028E2,1.735028E2,3.8598724E1,4.8302944E1,0E0,0E0,0E0,0E0,0E0,0E0,0E0,0E0],"parents":[2147483647,0,0,1,1,2,2,3,3,4,4,5,5,6,6],"right_children":[2,4,6,8,10,12,14,-1,-1,-1,-1,-1,-1,-1,-1],"split_conditions":[3.3551868E-2,1.5982646E-2,3.721224E0,-3.5103127E-2,-7.9334754E-1,-2.2269233E-1,-1.2085839E-1,5.6135785E-3,-3.1795532E-3,-2.8209083E-2,-3.165966E-3,6.9656023E-3,2.8506989E-2,-5.2442655E-2,2.718011E-2],"split_indices":[2,1,11,10,11,8,8,0,0,0,0,0,0,0,0],"split_type":[0,0,0,0,0,0,0,0,0,0,0,0,0,0,0],"sum_hessian":[1.1428268E4,1.1083669E4,3.445983E2,8.38278E3,2.7008894E3,3.1939407E2,2.5204245E1,4.686447E3,3.6963333E3,2.755739E2,2.4253154E3,1.22770355E2,1.966237E2,1.5557137E1,9.647109E0],"tree_param":{"num_deleted":"0","num_feature":"14","num_nodes":"15","size_leaf_vector":"1"}},{"base_weights":[8.64483E-3,3.4911025E-1,-1.9103128E-2,5.13732E-1,-1.6874722E-1,-4.6235334E-2,4.0963593E-1,-5.365508E-2,1.6278703E-2,-2.743739E-2,9.725848E-3,-9.624662E-4,-3.8983747E-2,2.0529868E-2,-1.6787652E-2],"categories":[],"categories_nodes":[],"categories_segments":[],"categories_sizes":[],"default_left":[0,0,0,0,0,0,0,0,0,0,0,0,0,0,0],"id":62,"left_children":[1,3,5,7,9,11,13,-1,-1,-1,-1,-1,-1,-1,-1],"loss_changes":[1.075847E2,7.333345E1,1.2253402E2,4.5286667E1,7.725123E1,1.756097E2,1.6768259E2,0E0,0E0,0E0,0E0,0E0,0E0,0E0,0E0],"parents":[2147483647,0,0,1,1,2,2,3,3,4,4,5,5,6,6],"right_children":[2,4,6,8,10,12,14,-1,-1,-1,-1,-1,-1,-1,-1],"split_conditions":[-2.0570839E-2,1.8632118E-2,-3.2047138E-2,-1.0172002E0,2.516101E-2,-3.381876E-2,1.4634159E-3,-5.365508E-2,1.6278703E-2,-2.743739E-2,9.725848E-3,-9.624662E-4,-3.8983747E-2,2.0529868E-2,-1.6787652E-2],"split_indices":[0,4,8,11,3,8,6,0,0,0,0,0,0,0,0],"split_type":[0,0,0,0,0,0,0,0,0,0,0,0,0,0,0],"sum_hessian":[1.13845625E4,8.561765E2,1.0528386E4,6.4966907E2,2.0650743E2,9.903443E3,6.249425E2,6.542185E0,6.431269E2,8.1494194E1,1.2501323E2,9.794877E3,1.0856609E2,4.873951E2,1.3754738E2],"tree_param":{"num_deleted":"0","num_feature":"14","num_nodes":"15","size_leaf_vector":"1"}},{"base_weights":[-1.6020192E-2,3.8305244E-1,-4.5633208E-2,5.654107E-1,-1.7472154E-1,-7.236144E-2,3.733913E-1,2.4178604E-2,1.135967E-2,-1.790536E-2,1.3671092E-2,-2.4804233E-3,2.8758517E-2,1.9010909E-2,-1.4757436E-2],"categories":[],"categories_nodes":[],"categories_segments":[],"categories_sizes":[],"default_left":[0,0,0,0,0,0,0,0,0,0,0,0,0,0,0],"id":63,"left_children":[1,3,5,7,9,11,13,-1,-1,-1,-1,-1,-1,-1,-1],"loss_changes":[1.3253212E2,7.8996216E1,1.169687E2,2.5637848E1,5.174593E1,1.0457771E2,1.4168675E2,0E0,0E0,0E0,0E0,0E0,0E0,0E0,0E0],"parents":[2147483647,0,0,1,1,2,2,3,3,4,4,5,5,6,6],"right_children":[2,4,6,8,10,12,14,-1,-1,-1,-1,-1,-1,-1,-1],"split_conditions":[-2.1356804E-2,1.8632118E-2,-3.2047138E-2,1.210549E-2,1.9293452E-2,1.0766731E-1,1.4634159E-3,2.4178604E-2,1.135967E-2,-1.790536E-2,1.3671092E-2,-2.4804233E-3,2.8758517E-2,1.9010909E-2,-1.4757436E-2],"split_indices":[0,4,8,4,9,1,6,0,0,0,0,0,0,0,0],"split_type":[0,0,0,0,0,0,0,0,0,0,0,0,0,0,0],"sum_hessian":[1.1209713E4,7.727027E2,1.0437011E4,5.822989E2,1.9040378E2,9.812741E3,6.242688E2,2.5160168E2,3.306972E2,1.14106285E2,7.62975E1,9.717318E3,9.542359E1,4.803137E2,1.4395508E2],"tree_param":{"num_deleted":"0","num_feature":"14","num_nodes":"15","size_leaf_vector":"1"}},{"base_weights":[1.2399097E-3,1.00832045E-1,-1.0132656E-1,3.6092024E-2,3.133646E-1,-1.4406894E-1,6.6467124E-1,-2.4286935E-2,2.2878489E-3,1.1290127E-2,-2.8678274E-2,-4.7677285E-3,3.0413277E-2,2.3833431E-2,-4.8330344E-2],"categories":[],"categories_nodes":[],"categories_segments":[],"categories_sizes":[],"default_left":[0,0,0,0,0,0,0,0,0,0,0,0,0,0,0],"id":64,"left_children":[1,3,5,7,9,11,13,-1,-1,-1,-1,-1,-1,-1,-1],"loss_changes":[1.16363686E2,7.950127E1,1.8393294E2,1.5069086E2,1.08565125E2,9.177697E1,9.0259735E1,0E0,0E0,0E0,0E0,0E0,0E0,0E0,0E0],"parents":[2147483647,0,0,1,1,2,2,3,3,4,4,5,5,6,6],"right_children":[2,4,6,8,10,12,14,-1,-1,-1,-1,-1,-1,-1,-1],"split_conditions":[7.089889E-4,1.0903312E-2,1.1271464E0,-1.0565596E-1,3.7185738E-3,6.905526E0,9.8065317E-1,-2.4286935E-2,2.2878489E-3,1.1290127E-2,-2.8678274E-2,-4.7677285E-3,3.0413277E-2,2.3833431E-2,-4.8330344E-2],"split_indices":[1,9,10,7,6,11,13,0,0,0,0,0,0,0,0],"split_type":[0,0,0,0,0,0,0,0,0,0,0,0,0,0,0],"sum_hessian":[1.1387659E4,5.777619E3,5.61004E3,4.430404E3,1.3472157E3,5.315084E3,2.9495584E2,1.9916864E2,4.231235E3,1.2848773E3,6.233846E1,5.249458E3,6.5625885E1,2.802743E2,1.4681546E1],"tree_param":{"num_deleted":"0","num_feature":"14","num_nodes":"15","size_leaf_vector":"1"}},{"base_weights":[1.5064052E-2,-5.733272E-1,3.6179986E-2,-7.1812516E-1,1.2904325E0,-4.8692007E-2,1.83541E-1,-2.9998789E-2,2.5835326E-3,4.9732674E-2,-2.9189777E-2,-1.8927846E-3,3.0642552E-2,9.5500844E-4,1.0245086E-2],"categories":[],"categories_nodes":[],"categories_segments":[],"categories_sizes":[],"default_left":[0,0,0,0,0,0,0,0,0,0,0,0,0,0,0],"id":65,"left_children":[1,3,5,7,9,11,13,-1,-1,-1,-1,-1,-1,-1,-1],"loss_changes":[1.4176378E2,1.0853171E2,1.3776112E2,8.360361E1,2.7513287E1,1.0784873E2,9.644284E1,0E0,0E0,0E0,0E0,0E0,0E0,0E0,0E0],"parents":[2147483647,0,0,1,1,2,2,3,3,4,4,5,5,6,6],"right_children":[2,4,6,8,10,12,14,-1,-1,-1,-1,-1,-1,-1,-1],"split_conditions":[-2.5653553E-1,4.7476063E0,1.2342019E-2,1.9397404E-2,1.2992048E-2,6.785349E-3,5.964426E-1,-2.9998789E-2,2.5835326E-3,4.9732674E-2,-2.9189777E-2,-1.8927846E-3,3.0642552E-2,9.5500844E-4,1.0245086E-2],"split_indices":[8,11,2,0,2,6,12,0,0,0,0,0,0,0,0],"split_type":[0,0,0,0,0,0,0,0,0,0,0,0,0,0,0],"sum_hessian":[1.1404744E4,3.9329712E2,1.1011447E4,3.6608487E2,2.7212252E1,6.988048E3,4.0233992E3,2.7072632E2,9.535854E1,2.3873142E1,3.33911E0,6.8971133E3,9.0934525E1,2.0535562E3,1.969843E3],"tree_param":{"num_deleted":"0","num_feature":"14","num_nodes":"15","size_leaf_vector":"1"}},{"base_weights":[-1.7862792E-4,8.30066E-2,-1.24368615E-1,-6.49137E-2,2.1309566E-1,-1.6124709E-1,7.4953717E-1,1.0188111E-2,-4.7016777E-3,-1.1082398E-3,9.0332255E-3,-5.3770994E-3,2.8410401E-2,3.937303E-2,1.1979959E-2],"categories":[],"categories_nodes":[],"categories_segments":[],"categories_sizes":[],"default_left":[0,0,0,0,0,0,0,0,0,0,0,0,0,0,0],"id":66,"left_children":[1,3,5,7,9,11,13,-1,-1,-1,-1,-1,-1,-1,-1],"loss_changes":[1.1749693E2,1.310943E2,1.4727661E2,1.1852938E2,7.978378E1,8.764825E1,3.5437584E1,0E0,0E0,0E0,0E0,0E0,0E0,0E0,0E0],"parents":[2147483647,0,0,1,1,2,2,3,3,4,4,5,5,6,6],"right_children":[2,4,6,8,10,12,14,-1,-1,-1,-1,-1,-1,-1,-1],"split_conditions":[5.9395717E-3,5.0823617E-1,7.775315E-3,6.6336305E-3,9.338798E-3,6.905526E0,1.38497185E-2,1.0188111E-2,-4.7016777E-3,-1.1082398E-3,9.0332255E-3,-5.3770994E-3,2.8410401E-2,3.937303E-2,1.1979959E-2],"split_indices":[1,12,6,4,3,11,2,0,0,0,0,0,0,0,0],"split_type":[0,0,0,0,0,0,0,0,0,0,0,0,0,0,0],"sum_hessian":[1.1369491E4,6.8092E3,4.560291E3,3.1867014E3,3.6224988E3,4.377206E3,1.8308533E2,5.884676E2,2.598234E3,9.434287E2,2.67907E3,4.3089385E3,6.826723E1,6.811172E1,1.149736E2],"tree_param":{"num_deleted":"0","num_feature":"14","num_nodes":"15","size_leaf_vector":"1"}},{"base_weights":[-1.6253113E-3,-4.921805E-1,1.6481727E-2,-1.077548E0,3.397406E-4,-3.279946E-2,2.4883793E-1,-2.1765977E-2,-4.4644628E-2,-6.0508735E-3,4.462117E-2,-4.1997917E-3,2.5020964E-3,8.520518E-3,-2.4968464E-2],"categories":[],"categories_nodes":[],"categories_segments":[],"categories_sizes":[],"default_left":[0,0,0,0,0,0,0,0,0,0,0,0,0,0,0],"id":67,"left_children":[1,3,5,7,9,11,13,-1,-1,-1,-1,-1,-1,-1,-1],"loss_changes":[1.004498E2,1.16061165E2,1.2490254E2,2.4427704E1,6.688092E1,1.12125336E2,7.3064095E1,0E0,0E0,0E0,0E0,0E0,0E0,0E0,0E0],"parents":[2147483647,0,0,1,1,2,2,3,3,4,4,5,5,6,6],"right_children":[2,4,6,8,10,12,14,-1,-1,-1,-1,-1,-1,-1,-1],"split_conditions":[-2.5653553E-1,2.516101E-2,1.7384643E-2,1.3526438E-1,4.7476063E0,-7.64043E-2,3.9198668E0,-2.1765977E-2,-4.4644628E-2,-6.0508735E-3,4.462117E-2,-4.1997917E-3,2.5020964E-3,8.520518E-3,-2.4968464E-2],"split_indices":[8,3,2,11,11,8,11,0,0,0,0,0,0,0,0],"split_type":[0,0,0,0,0,0,0,0,0,0,0,0,0,0,0],"sum_hessian":[1.1304902E4,4.005608E2,1.0904341E4,1.819431E2,2.1861769E2,8.997706E3,1.9066351E3,1.0094029E2,8.100281E1,1.9398999E2,2.46277E1,4.680069E3,4.317637E3,1.847977E3,5.8658092E1],"tree_param":{"num_deleted":"0","num_feature":"14","num_nodes":"15","size_leaf_vector":"1"}},{"base_weights":[-1.8609455E-2,-1.1497311E-1,8.401774E-2,1.3001172E-2,-4.449099E-1,2.1982243E-2,5.282279E-1,-9.65749E-3,4.002748E-3,2.1320457E-2,-1.5901154E-2,-1.3084925E-2,2.3047212E-3,3.218146E-3,2.60848E-2],"categories":[],"categories_nodes":[],"categories_segments":[],"categories_sizes":[],"default_left":[0,0,0,0,0,0,0,0,0,0,0,0,0,0,0],"id":68,"left_children":[1,3,5,7,9,11,13,-1,-1,-1,-1,-1,-1,-1,-1],"loss_changes":[1.1134112E2,2.4517206E2,1.5022365E2,1.6889598E2,1.6039041E2,1.2032371E2,9.5781906E1,0E0,0E0,0E0,0E0,0E0,0E0,0E0,0E0],"parents":[2147483647,0,0,1,1,2,2,3,3,4,4,5,5,6,6],"right_children":[2,4,6,8,10,12,14,-1,-1,-1,-1,-1,-1,-1,-1],"split_conditions":[-8.597034E-2,-5.5240296E-2,1.2576304E-2,7.448614E-1,2.6005362E-3,-5.9736885E-2,2.0285943E-3,-9.65749E-3,4.002748E-3,2.1320457E-2,-1.5901154E-2,-1.3084925E-2,2.3047212E-3,3.218146E-3,2.60848E-2],"split_indices":[8,7,4,13,9,7,6,0,0,0,0,0,0,0,0],"split_type":[0,0,0,0,0,0,0,0,0,0,0,0,0,0,0],"sum_hessian":[1.1254528E4,5.804267E3,5.4502617E3,4.183509E3,1.6207579E3,4.7842266E3,6.66035E2,1.1055244E3,3.0779846E3,1.1019542E2,1.5105625E3,5.099785E2,4.274248E3,2.9937714E2,3.6665784E2],"tree_param":{"num_deleted":"0","num_feature":"14","num_nodes":"15","size_leaf_vector":"1"}},{"base_weights":[-2.609574E-3,7.4803166E-2,-1.4385161E-1,4.014463E-2,7.0352983E-1,-2.8884912E-1,3.4581155E-2,-4.9551246E-3,3.34101E-3,-3.25442E-3,2.7418265E-2,-1.2958967E-2,4.272735E-3,-3.3905937E-3,1.5342652E-2],"categories":[],"categories_nodes":[],"categories_segments":[],"categories_sizes":[],"default_left":[0,0,0,0,0,0,0,0,0,0,0,0,0,0,0],"id":69,"left_children":[1,3,5,7,9,11,13,-1,-1,-1,-1,-1,-1,-1,-1],"loss_changes":[1.2362132E2,1.5908987E2,1.035829E2,1.0128605E2,6.537079E1,1.3643927E2,1.2654365E2,0E0,0E0,0E0,0E0,0E0,0E0,0E0,0E0],"parents":[2147483647,0,0,1,1,2,2,3,3,4,4,5,5,6,6],"right_children":[2,4,6,8,10,12,14,-1,-1,-1,-1,-1,-1,-1,-1],"split_conditions":[1.1053148E-3,-3.130829E-2,-7.37852E-2,8.731437E-3,2.5432622E-3,1.8093543E-2,1.1751193E-2,-4.9551246E-3,3.34101E-3,-3.25442E-3,2.7418265E-2,-1.2958967E-2,4.272735E-3,-3.3905937E-3,1.5342652E-2],"split_indices":[6,8,8,3,9,3,3,0,0,0,0,0,0,0,0],"split_type":[0,0,0,0,0,0,0,0,0,0,0,0,0,0,0],"sum_hessian":[1.1302241E4,7.301393E3,4.0008481E3,6.921948E3,3.7944443E2,2.206539E3,1.7943091E3,1.7820697E3,5.139879E3,7.828824E1,3.011562E2,1.65675E3,5.497891E2,1.3713486E3,4.2296048E2],"tree_param":{"num_deleted":"0","num_feature":"14","num_nodes":"15","size_leaf_vector":"1"}},{"base_weights":[7.886697E-3,6.9345534E-2,-1.4642186E-1,-1.1437445E-1,1.4722791E-1,-1.9240771E-1,7.868609E-1,-2.4211617E-2,7.6448155E-4,-7.578359E-3,6.440846E-3,-7.0665814E-3,2.5298143E-2,-5.5658976E-3,3.1406913E-2],"categories":[],"categories_nodes":[],"categories_segments":[],"categories_sizes":[],"default_left":[0,0,0,0,0,0,0,0,0,0,0,0,0,0,0],"id":70,"left_children":[1,3,5,7,9,11,13,-1,-1,-1,-1,-1,-1,-1,-1],"loss_changes":[1.0764051E2,1.1617639E2,1.390556E2,2.342553E2,1.5390788E2,1.3814928E2,3.887635E1,0E0,0E0,0E0,0E0,0E0,0E0,0E0,0E0],"parents":[2147483647,0,0,1,1,2,2,3,3,4,4,5,5,6,6],"right_children":[2,4,6,8,10,12,14,-1,-1,-1,-1,-1,-1,-1,-1],"split_conditions":[2.4992982E-1,8.731437E-3,7.775315E-3,-4.5135938E-2,6.37871E-1,3.3551868E-2,-1.5468611E-1,-2.4211617E-2,7.6448155E-4,-7.578359E-3,6.440846E-3,-7.0665814E-3,2.5298143E-2,-5.5658976E-3,3.1406913E-2],"split_indices":[10,3,6,7,13,2,8,0,0,0,0,0,0,0,0],"split_type":[0,0,0,0,0,0,0,0,0,0,0,0,0,0,0],"sum_hessian":[1.1346003E4,8.1150137E3,3.2309895E3,2.4156648E3,5.6993486E3,3.0807773E3,1.5021216E2,4.0420282E2,2.011462E3,8.2204517E2,4.8773037E3,2.9590525E3,1.21725044E2,3.1814962E1,1.18397194E2],"tree_param":{"num_deleted":"0","num_feature":"14","num_nodes":"15","size_leaf_vector":"1"}},{"base_weights":[9.980963E-4,3.42446E-1,-2.6777925E-2,4.933921E-1,-1.2097582E-1,-1.0240254E-1,8.765579E-2,-5.2238192E-2,1.5604432E-2,-3.7721008E-2,5.7192757E-3,3.1321697E-4,-7.817213E-3,9.363327E-4,1.8650116E-2],"categories":[],"categories_nodes":[],"categories_segments":[],"categories_sizes":[],"default_left":[0,0,0,0,0,0,0,0,0,0,0,0,0,0,0],"id":71,"left_children":[1,3,5,7,9,11,13,-1,-1,-1,-1,-1,-1,-1,-1],"loss_changes":[1.0728509E2,5.964765E1,9.054939E1,4.021457E1,7.5088646E1,1.1244405E2,1.2546225E2,0E0,0E0,0E0,0E0,0E0,0E0,0E0,0E0],"parents":[2147483647,0,0,1,1,2,2,3,3,4,4,5,5,6,6],"right_children":[2,4,6,8,10,12,14,-1,-1,-1,-1,-1,-1,-1,-1],"split_conditions":[-2.0570839E-2,1.8632118E-2,-7.37852E-2,-1.0172002E0,2.1440024E-2,5.085668E-4,1.2576304E-2,-5.2238192E-2,1.5604432E-2,-3.7721008E-2,5.7192757E-3,3.1321697E-4,-7.817213E-3,9.363327E-4,1.8650116E-2],"split_indices":[0,4,8,11,3,6,4,0,0,0,0,0,0,0,0],"split_type":[0,0,0,0,0,0,0,0,0,0,0,0,0,0,0],"sum_hessian":[1.130821E4,8.4899084E2,1.0459219E4,6.403019E2,2.0868893E2,6.2976E3,4.1616187E3,6.0593057E0,6.3424255E2,4.3604546E1,1.6508438E2,3.6765386E3,2.6210615E3,3.7657053E3,3.9591348E2],"tree_param":{"num_deleted":"0","num_feature":"14","num_nodes":"15","size_leaf_vector":"1"}},{"base_weights":[-1.461889E-2,-6.170709E-1,5.655745E-3,-1.0617123E0,-6.330441E-2,-9.347452E-2,1.6914383E-1,2.214816E-3,-3.859245E-2,-2.0087741E-2,1.2947697E-2,-3.4978392E-3,2.4592312E-2,-2.8644574E-3,8.094794E-3],"categories":[],"categories_nodes":[],"categories_segments":[],"categories_sizes":[],"default_left":[0,0,0,0,0,0,0,0,0,0,0,0,0,0,0],"id":72,"left_children":[1,3,5,7,9,11,13,-1,-1,-1,-1,-1,-1,-1,-1],"loss_changes":[1.371795E2,8.989935E1,1.7614334E2,5.1906082E1,5.007702E1,1.4304901E2,1.093563E2,0E0,0E0,0E0,0E0,0E0,0E0,0E0,0E0],"parents":[2147483647,0,0,1,1,2,2,3,3,4,4,5,5,6,6],"right_children":[2,4,6,8,10,12,14,-1,-1,-1,-1,-1,-1,-1,-1],"split_conditions":[-2.626603E-1,1.6465575E-2,1.2266943E-2,7.667709E-3,5.3671803E-3,1.3935891E0,-1.5606709E-1,2.214816E-3,-3.859245E-2,-2.0087741E-2,1.2947697E-2,-3.4978392E-3,2.4592312E-2,-2.8644574E-3,8.094794E-3],"split_indices":[8,9,2,2,0,10,8,0,0,0,0,0,0,0,0],"split_type":[0,0,0,0,0,0,0,0,0,0,0,0,0,0,0],"sum_hessian":[1.1228307E4,3.636527E2,1.0864654E4,2.006823E2,1.6297041E2,6.7641177E3,4.100536E3,3.337317E1,1.6730914E2,7.292509E1,9.0045334E1,6.5987993E3,1.6531837E2,1.1301774E3,2.9703591E3],"tree_param":{"num_deleted":"0","num_feature":"14","num_nodes":"15","size_leaf_vector":"1"}},{"base_weights":[8.501257E-3,-5.312966E-1,2.6080247E-2,-1.1209862E0,-3.575088E-2,1.1742611E-1,-6.879136E-2,1.3238645E-2,-3.7967596E-2,1.0741612E-2,-2.7303258E-2,1.6790393E-3,1.1191495E-2,-2.7763501E-3,2.062246E-2],"categories":[],"categories_nodes":[],"categories_segments":[],"categories_sizes":[],"default_left":[0,0,0,0,0,0,0,0,0,0,0,0,0,0,0],"id":73,"left_children":[1,3,5,7,9,11,13,-1,-1,-1,-1,-1,-1,-1,-1],"loss_changes":[1.073623E2,1.04194984E2,9.4966736E1,3.7911606E1,6.81272E1,8.766362E1,9.669089E1,0E0,0E0,0E0,0E0,0E0,0E0,0E0,0E0],"parents":[2147483647,0,0,1,1,2,2,3,3,4,4,5,5,6,6],"right_children":[2,4,6,8,10,12,14,-1,-1,-1,-1,-1,-1,-1,-1],"split_conditions":[-2.626603E-1,4.120922E-3,1.4179779E-4,-5.0422594E-2,2.8550974E-3,1.1465808E-2,7.775315E-3,1.3238645E-2,-3.7967596E-2,1.0741612E-2,-2.7303258E-2,1.6790393E-3,1.1191495E-2,-2.7763501E-3,2.062246E-2],"split_indices":[8,0,5,0,6,9,6,0,0,0,0,0,0,0,0],"split_type":[0,0,0,0,0,0,0,0,0,0,0,0,0,0,0],"sum_hessian":[1.1309355E4,3.5484003E2,1.0954516E4,1.6087622E2,1.9396379E2,5.5807188E3,5.3737964E3,1.3281218E1,1.47595E2,1.3454614E2,5.9417652E1,4.501006E3,1.079713E3,5.2118394E3,1.6195691E2],"tree_param":{"num_deleted":"0","num_feature":"14","num_nodes":"15","size_leaf_vector":"1"}},{"base_weights":[1.4786605E-2,-4.8903844E-1,3.2730374E-2,1.5936428E-1,-8.9391506E-1,1.1887875E-2,4.7568047E-1,2.6301578E-2,-1.03275655E-2,-1.220178E-2,-3.4237776E-2,2.3487045E-3,-4.411221E-3,-3.082343E-2,1.676203E-2],"categories":[],"categories_nodes":[],"categories_segments":[],"categories_sizes":[],"default_left":[0,0,0,0,0,0,0,0,0,0,0,0,0,0,0],"id":74,"left_children":[1,3,5,7,9,11,13,-1,-1,-1,-1,-1,-1,-1,-1],"loss_changes":[1.0322169E2,1.0336735E2,1.0175942E2,5.5746197E1,2.8236572E1,1.1114984E2,6.298609E1,0E0,0E0,0E0,0E0,0E0,0E0,0E0,0E0],"parents":[2147483647,0,0,1,1,2,2,3,3,4,4,5,5,6,6],"right_children":[2,4,6,8,10,12,14,-1,-1,-1,-1,-1,-1,-1,-1],"split_conditions":[-2.5653553E-1,-1.971862E-1,2.7242556E-2,-3.1178737E-1,1.1587682E-4,2.261612E-1,-1.1642141E0,2.6301578E-2,-1.03275655E-2,-1.220178E-2,-3.4237776E-2,2.3487045E-3,-4.411221E-3,-3.082343E-2,1.676203E-2],"split_indices":[8,7,2,10,6,10,10,0,0,0,0,0,0,0,0],"split_type":[0,0,0,0,0,0,0,0,0,0,0,0,0,0,0],"sum_hessian":[1.1412131E4,3.9066043E2,1.102147E4,1.5063458E2,2.4002586E2,1.0528135E4,4.9333536E2,6.152138E1,8.91132E1,8.260639E1,1.5741946E2,7.426337E3,3.1017979E3,2.4640682E1,4.6869467E2],"tree_param":{"num_deleted":"0","num_feature":"14","num_nodes":"15","size_leaf_vector":"1"}},{"base_weights":[4.5963726E-3,-5.6953482E-2,1.3899809E-1,-1.106477E-1,2.4673207E-1,-8.846831E-2,3.0065662E-1,-3.778473E-3,2.4674034E-2,-4.2235542E-2,8.876088E-3,-1.3700032E-2,7.314152E-3,9.675754E-3,-6.0036555E-2],"categories":[],"categories_nodes":[],"categories_segments":[],"categories_sizes":[],"default_left":[0,0,0,0,0,0,0,0,0,0,0,0,0,0,0],"id":75,"left_children":[1,3,5,7,9,11,13,-1,-1,-1,-1,-1,-1,-1,-1],"loss_changes":[9.3559875E1,1.26549034E2,1.3068515E2,9.4346565E1,9.564217E1,1.8097186E2,1.05849106E2,0E0,0E0,0E0,0E0,0E0,0E0,0E0,0E0],"parents":[2147483647,0,0,1,1,2,2,3,3,4,4,5,5,6,6],"right_children":[2,4,6,8,10,12,14,-1,-1,-1,-1,-1,-1,-1,-1],"split_conditions":[1.3762601E-2,-3.8671505E-2,-1.4833744E-1,6.785349E-3,3.8607404E-2,6.728279E-1,5.8839884E0,-3.778473E-3,2.4674034E-2,-4.2235542E-2,8.876088E-3,-1.3700032E-2,7.314152E-3,9.675754E-3,-6.0036555E-2],"split_indices":[2,8,8,6,12,12,11,0,0,0,0,0,0,0,0],"split_type":[0,0,0,0,0,0,0,0,0,0,0,0,0,0,0],"sum_hessian":[1.130596E4,7.7554634E3,3.5504958E3,6.591331E3,1.1641327E3,1.4753986E3,2.0750974E3,6.486691E3,1.0463989E2,3.1980106E1,1.1321526E3,6.995088E2,7.758898E2,2.0572725E3,1.7824951E1],"tree_param":{"num_deleted":"0","num_feature":"14","num_nodes":"15","size_leaf_vector":"1"}},{"base_weights":[-1.2653925E-2,4.484764E-2,-1.9402775E-1,-8.796998E-2,1.6697456E-1,-8.708324E-1,-1.1497328E-1,6.6936184E-3,-4.898689E-3,-3.5717164E-3,7.5669936E-3,7.963358E-3,-3.3499606E-2,-2.39994E-2,-7.6551136E-4],"categories":[],"categories_nodes":[],"categories_segments":[],"categories_sizes":[],"default_left":[0,0,0,0,0,0,0,0,0,0,0,0,0,0,0],"id":76,"left_children":[1,3,5,7,9,11,13,-1,-1,-1,-1,-1,-1,-1,-1],"loss_changes":[1.1710357E2,1.383237E2,1.4441357E2,9.580054E1,1.08394615E2,7.9468216E1,1.4840266E2,0E0,0E0,0E0,0E0,0E0,0E0,0E0,0E0],"parents":[2147483647,0,0,1,1,2,2,3,3,4,4,5,5,6,6],"right_children":[2,4,6,8,10,12,14,-1,-1,-1,-1,-1,-1,-1,-1],"split_conditions":[1.6262967E-2,5.0823617E-1,-7.717243E-1,6.6742045E-3,8.731437E-3,3.07516E-3,-6.5432346E-1,6.6936184E-3,-4.898689E-3,-3.5717164E-3,7.5669936E-3,7.963358E-3,-3.3499606E-2,-2.39994E-2,-7.6551136E-4],"split_indices":[1,12,11,4,3,9,10,0,0,0,0,0,0,0,0],"split_type":[0,0,0,0,0,0,0,0,0,0,0,0,0,0,0],"sum_hessian":[1.1224679E4,8.523842E3,2.7008374E3,4.0834717E3,4.44037E3,2.8038257E2,2.4204548E3,7.9519147E2,3.2882803E3,1.0194501E3,3.42092E3,4.9840664E1,2.3054192E2,2.7774564E2,2.1427092E3],"tree_param":{"num_deleted":"0","num_feature":"14","num_nodes":"15","size_leaf_vector":"1"}},{"base_weights":[-1.4713782E-2,2.3949306E-1,-4.383055E-2,-5.031892E-1,3.403715E-1,7.2374827E-1,-5.913853E-2,1.1614644E-2,-2.7468741E-2,3.8777061E-3,2.1087475E-2,-3.168204E-2,2.9819237E-2,-4.926616E-3,1.8999389E-3],"categories":[],"categories_nodes":[],"categories_segments":[],"categories_sizes":[],"default_left":[0,0,0,0,0,0,0,0,0,0,0,0,0,0,0],"id":77,"left_children":[1,3,5,7,9,11,13,-1,-1,-1,-1,-1,-1,-1,-1],"loss_changes":[8.292046E1,8.660062E1,1.181828E2,5.1563824E1,7.749223E1,9.669136E1,1.2686241E2,0E0,0E0,0E0,0E0,0E0,0E0,0E0,0E0],"parents":[2147483647,0,0,1,1,2,2,3,3,4,4,5,5,6,6],"right_children":[2,4,6,8,10,12,14,-1,-1,-1,-1,-1,-1,-1,-1],"split_conditions":[6.5843426E-3,2.2276517E-3,2.1569808E-3,-2.497136E-3,-3.2047138E-2,7.225471E-3,1.1781557E-2,1.1614644E-2,-2.7468741E-2,3.8777061E-3,2.1087475E-2,-3.168204E-2,2.9819237E-2,-4.926616E-3,1.8999389E-3],"split_indices":[4,9,9,0,8,4,2,0,0,0,0,0,0,0,0],"split_type":[0,0,0,0,0,0,0,0,0,0,0,0,0,0,0],"sum_hessian":[1.1198084E4,1.1493263E3,1.0048758E4,1.3649E2,1.0128363E3,1.9467601E2,9.854082E3,4.3248978E1,9.324103E1,6.4181287E2,3.710235E2,2.4894554E1,1.6978145E2,5.303162E3,4.55092E3],"tree_param":{"num_deleted":"0","num_feature":"14","num_nodes":"15","size_leaf_vector":"1"}},{"base_weights":[7.954996E-3,-5.4699177E-1,2.5654325E-2,5.7515558E-2,-8.950118E-1,3.0239061E-3,4.8004574E-1,7.671678E-3,-4.2529985E-2,-3.2788448E-2,-9.1821505E-3,1.7534804E-3,-5.4538003E-3,-2.8599571E-2,1.6671197E-2],"categories":[],